tree
version=v3
num_class=1
num_tree_per_iteration=1
label_index=0
max_feature_idx=150
objective=regression
feature_names=Column_0 Column_1 Column_2 Column_3 Column_4 Column_5 Column_6 Column_7 Column_8 Column_9 Column_10 Column_11 Column_12 Column_13 Column_14 Column_15 Column_16 Column_17 Column_18 Column_19 Column_20 Column_21 Column_22 Column_23 Column_24 Column_25 Column_26 Column_27 Column_28 Column_29 Column_30 Column_31 Column_32 Column_33 Column_34 Column_35 Column_36 Column_37 Column_38 Column_39 Column_40 Column_41 Column_42 Column_43 Column_44 Column_45 Column_46 Column_47 Column_48 Column_49 Column_50 Column_51 Column_52 Column_53 Column_54 Column_55 Column_56 Column_57 Column_58 Column_59 Column_60 Column_61 Column_62 Column_63 Column_64 Column_65 Column_66 Column_67 Column_68 Column_69 Column_70 Column_71 Column_72 Column_73 Column_74 Column_75 Column_76 Column_77 Column_78 Column_79 Column_80 Column_81 Column_82 Column_83 Column_84 Column_85 Column_86 Column_87 Column_88 Column_89 Column_90 Column_91 Column_92 Column_93 Column_94 Column_95 Column_96 Column_97 Column_98 Column_99 Column_100 Column_101 Column_102 Column_103 Column_104 Column_105 Column_106 Column_107 Column_108 Column_109 Column_110 Column_111 Column_112 Column_113 Column_114 Column_115 Column_116 Column_117 Column_118 Column_119 Column_120 Column_121 Column_122 Column_123 Column_124 Column_125 Column_126 Column_127 Column_128 Column_129 Column_130 Column_131 Column_132 Column_133 Column_134 Column_135 Column_136 Column_137 Column_138 Column_139 Column_140 Column_141 Column_142 Column_143 Column_144 Column_145 Column_146 Column_147 Column_148 Column_149 Column_150
feature_infos=[1.0000003385357559e-05:0.91731268167495728] [1.0000003385357559e-05:1.0000100135803223] [1.0000003385357559e-05:0.80318379402160645] [1.0000003385357559e-05:0.14415885508060455] [1.0000003385357559e-05:0.1824355274438858] [1.0000003385357559e-05:0.99194800853729248] [1.0000003385357559e-05:0.16452647745609283] [1.0000003385357559e-05:0.30075559020042419] [1.0000003385357559e-05:0.19194278120994568] [1.0000003385357559e-05:0.22816647589206696] [1.0000003385357559e-05:0.92415183782577515] [1.0000003385357559e-05:0.98146343231201172] [1.0000003385357559e-05:0.51562994718551636] [1.0000003385357559e-05:0.075868174433708191] [1.0000003385357559e-05:0.98902308940887451] [1.0000003385357559e-05:0.93246334791183472] [1.0000003385357559e-05:0.9073222279548645] [1.0000003385357559e-05:1.0000100135803223] [1.0000003385357559e-05:0.99900949001312256] [1.0000003385357559e-05:0.99959272146224976] [1.0000003385357559e-05:1.0000100135803223] [1.0000003385357559e-05:0.50782185792922974] [1.0000003385357559e-05:0.090102985501289368] [1.0000003385357559e-05:0.86340165138244629] [1.0000003385357559e-05:0.71860438585281372] [1.0000003385357559e-05:0.71860438585281372] [1.0000003385357559e-05:1.0000100135803223] [1.0000003385357559e-05:0.97632056474685669] [1.0000003385357559e-05:0.9845854640007019] [1.0000003385357559e-05:0.95664423704147339] [1.0000003385357559e-05:0.28777784109115601] [1.0000003385357559e-05:1.0000100135803223] [1.0000003385357559e-05:0.60767316818237305] [1.0000003385357559e-05:0.92631375789642334] [1.0000003385357559e-05:0.4765896201133728] [1.0000003385357559e-05:0.84797775745391846] [1.0000003385357559e-05:0.994098961353302] [1.0000003385357559e-05:1.0000100135803223] [1.0000003385357559e-05:0.60019838809967041] [1.0000003385357559e-05:0.90466052293777466] [1.0000003385357559e-05:0.77730989456176758] [1.0000003385357559e-05:0.051855459809303284] [1.0000003385357559e-05:0.94500470161437988] [1.0000003385357559e-05:0.88404929637908936] [1.0000003385357559e-05:0.9845854640007019] [1.0000003385357559e-05:0.67918872833251953] [1.0000003385357559e-05:1.0000100135803223] [1.0000003385357559e-05:0.69265198707580566] [1.0000003385357559e-05:0.92631375789642334] [1.0000003385357559e-05:0.73716819286346436] [1.0000003385357559e-05:1.0000100135803223] [1.0000003385357559e-05:0.99955171346664429] [1.0000003385357559e-05:0.93992334604263306] [1.0000003385357559e-05:0.85967373847961426] [1.0000003385357559e-05:0.99445509910583496] [1.0000003385357559e-05:0.18714269995689392] [1.0000003385357559e-05:0.16886694729328156] [1.0000003385357559e-05:0.17782086133956909] [1.0000003385357559e-05:0.98029088973999023] [1.0000003385357559e-05:0.73106861114501953] [1.0000003385357559e-05:0.99876517057418823] [1.0000003385357559e-05:0.30075559020042419] [1.0000003385357559e-05:0.23935934901237488] [1.0000003385357559e-05:0.62246936559677124] [1.0000003385357559e-05:0.048867780715227127] [1.0000003385357559e-05:1.0000100135803223] [1.0000003385357559e-05:0.98256754875183105] [1.0000003385357559e-05:0.23935934901237488] [1.0000003385357559e-05:0.89331942796707153] [1.0000003385357559e-05:0.44553956389427185] [1.0000003385357559e-05:0.88404929637908936] [1.0000003385357559e-05:0.99955171346664429] [1.0000003385357559e-05:0.97325074672698975] [1.0000003385357559e-05:0.9926641583442688] [1.0000003385357559e-05:0.095359459519386292] [1.0000003385357559e-05:0.61509788036346436] [1.0000003385357559e-05:0.11597072333097458] [1.0000003385357559e-05:0.98867827653884888] [1.0000003385357559e-05:0.68595945835113525] [1.0000003385357559e-05:0.80807721614837646] [1.0000003385357559e-05:0.78267252445220947] [1.0000003385357559e-05:0.93992334604263306] [1.0000003385357559e-05:0.90991699695587158] [1.0000003385357559e-05:0.9591643214225769] [1.0000003385357559e-05:0.98505294322967529] [1.0000003385357559e-05:0.95258414745330811] [1.0000003385357559e-05:0.36297920346260071] [1.0000003385357559e-05:1.0000100135803223] [1.0000003385357559e-05:0.98505294322967529] [1.0000003385357559e-05:0.99673694372177124] [1.0000003385357559e-05:0.040855713188648224] [1.0000003385357559e-05:0.28141561150550842] [1.0000003385357559e-05:1.0000100135803223] [1.0000003385357559e-05:1.0000100135803223] [1.0000003385357559e-05:0.82672178745269775] [1.0000003385357559e-05:1.0000100135803223] [1.0000003385357559e-05:0.46102678775787354] [1.0000003385357559e-05:1.0000100135803223] [1.0000003385357559e-05:1.0000100135803223] [1.0000003385357559e-05:0.95258414745330811] [1.0000003385357559e-05:0.96037119626998901] [1.0000003385357559e-05:1.0000100135803223] [1.0000003385357559e-05:0.98410362005233765] [1.0000003385357559e-05:1.0000100135803223] [1.0000003385357559e-05:0.8991314172744751] [1.0000003385357559e-05:0.39982163906097412] [1.0000003385357559e-05:0.99904024600982666] [1.0000003385357559e-05:0.87060725688934326] [1.0000003385357559e-05:1.0000100135803223] [1.0000003385357559e-05:0.30075559020042419] [1.0000003385357559e-05:1.0000100135803223] [1.0000003385357559e-05:0.79819679260253906] [1.0000003385357559e-05:0.99825537204742432] [1.0000003385357559e-05:0.58511114120483398] [1.0000003385357559e-05:0.36297920346260071] [1.0000003385357559e-05:1.0000100135803223] [1.0000003385357559e-05:0.57750540971755981] [1.0000003385357559e-05:1.0000100135803223] [1.0000003385357559e-05:1.0000100135803223] [1.0000003385357559e-05:0.029322227463126183] [1.0000003385357559e-05:0.055015292018651962] [1.0000003385357559e-05:0.98146343231201172] [1.0000003385357559e-05:1.0000100135803223] [1.0000003385357559e-05:0.63704079389572144] [1.0000003385357559e-05:0.99907004833221436] [1.0000003385357559e-05:0.95115220546722412] [1.0000003385357559e-05:0.31406053900718689] [1.0000003385357559e-05:0.96037119626998901] [1.0000003385357559e-05:0.54674816131591797] [1.0000003385357559e-05:0.99030154943466187] [1.0000003385357559e-05:0.065614834427833557] [1.0000003385357559e-05:1.0000100135803223] [1.0000003385357559e-05:0.72488027811050415] [1.0000003385357559e-05:0.54674816131591797] [1.0000003385357559e-05:0.055015292018651962] [1.0000003385357559e-05:1.0000100135803223] [1.0000003385357559e-05:0.20690405368804932] [1.0000003385357559e-05:0.72488027811050415] [1.0000003385357559e-05:0.99720907211303711] [1.0000003385357559e-05:0.075868174433708191] [1.0000003385357559e-05:0.97483116388320923] [1.0000003385357559e-05:0.83549356460571289] [1.0000003385357559e-05:0.61509788036346436] [1.0000003385357559e-05:0.55448043346405029] [1.0000003385357559e-05:0.8991314172744751] [1.0000003385357559e-05:0.97558695077896118] [1.0000003385357559e-05:0.49219813942909241] [1.0000003385357559e-05:0.89331942796707153] [1.0000003385357559e-05:0.77730989456176758] [1.0000003385357559e-05:0.91731268167495728] [1.0000003385357559e-05:0.36297920346260071]
tree_sizes=1185 1230 1237 1235 1233 1232 1229 1219 1224 1231 1230 1233 1223 1218 1218 1226 1235 1221 1224 1236 1232 1229 1222 1224 1223 1226 1238 1229 1236 1236 1234 1227 1236 1239 1235 1235 1222 1228 1229 1227 1233 1231 1226 1231 1236 1232 1236 1223 1213 1223 1240 1228 1214 1217 1226 1225 1222 1231 1236 1232 1230 1233 1225 1227 1230 1225 1234 1240 1228 1233 1232 1219 1220 1230 1241 1217 1228 1225 1237 1232 1220 1223 1217 1239 1224 1238 1228 1237 1233 1236 1232 1220 1231 1233 1234 1227 1217 1236 1225 1236 1239 1235 1225 1245 1239 1232 1238 1230 1219 1236 1227 1226 1238 1236 1236 1221 1233 1228 1239 1219 1224 1234 1234 1235 1237 1231 1222 1226 1238 1224 1219 1216 1229 1243 1244 1224 1225 1225 1231 1223 1227 1232 1227 1228 1243 1235 1225 1227 1240 1227 1220 1230 1225 1230 1232 1232 1229 1241 1232 1230 1236 1226 1235 1235 1221 1239 1230 1240 1235 1238 1240 1225 1229 1231 1223 1231 1238 1226 1232 1235 1234 1222 1233 1246 1232 1223 1230 1244 1229 1230 1231 1240 1231 1234 1227 1234 1235 1230 1226 1232 1235 1228 1233 1221 1236 1250 1231 1235 1243 1232 1232 1242 1231 1232 1242 1231 1235 1231 1235 1243 1230 1236 1225 1242 1236 1243 1238 1239 1241 1240 1237 1244 1222 1228 1246 1236 1234 1238 1236 1233 1228 1233 1234 1237 1245 1236 1245 1245 1236 1230 1223 1233 1229 1236 1232 1235 1239 1243 1241 1237 1220 1223 1237 1237 1248 1232 1232 1233 1240 1237 1244 1237 1239 1235 1234 1234 1234 1224 1227 1239 1230 1234 1238 1235 1238 1237 1228 1245 1236 1223 1242 1242 1235 1226 1237 1237 1233 1227 1241 1225 1237 1239 1226 1230 1249 1239 1235 1226 1236 1235 1240 1230 1239 1226 1231 1230 1233 1233 1248 1235 1241 1238 1245 1233 1238 1236 1228 1245 1231 1250 1234 1232 1237 1236 1240 1232 1249 1246 1230 1240 1232 1252 1230 1241 1231 1232 1241 1235 1246 1233 1229 1232 1236 1239 1232 1238 1239 1236 1239 1235 1251 1243 1230 1241 1228 1242 1243 1245 1234 1233 1224 1236 1235 1237 1239 1237 1238 1239 1232 1224 1241 1236 1226 1233 1244 1236 1239 1230 1234 1229 1237 1242 1232 1250 1226 1236 1235 1241 1240 1236 1237 1249 1236 1229 1240 1241 1235 1244 1247 1231 1243 1237 1230 1247 1244 1230 1232 1232 1236 1225 1243 1229 1234 1234 1244 1234 1236 1241 1236 1236 1242 1244 1235 1235 1242 1240 1243 1234 1246 1236 1250 1238 1227 1234 1241 1229 1237 1235 1229 1235 1236 1247 1225 1241 1234 1244 1236 1249 1236 1247 1236 1232 1248 1246 1241 1239 1243 1241 1230 1247 1233 1235 1229 1238 1228 1232 1245 1249 1233 1246 1235 1241 1229 1233 1233 1243 1226 1235 1254 1250 1232 1240 1243 1236 1239 1236 1245 1223 1237 1241 1241 1236 1232 1231 1229 1235 1245 1239 1232 1241 1235 1226 1241 1239 1229 1235 1242 1232 1230 1245 1232 1225 1227 1236 1244 1228 1241 1237 1241 1238 1246 1240 1228 1230 1242 1241 1233 1234 1247 1236 1242 1225 1229 1238 1245 1237 1242 1236 1242 1243 1229 1234 1249 1244 1241 1234 1242 1242 1240 1235 1244 1242 1231 1240 1223 1234 1241 1232 1233 1236 1238 1232 1241 1235 1233 1233 1239 1247 1233 1249 1232 1234 1236 1241 1239 1231 1243 1234 1247 1236 1227 1237 1240 1227 1233 1237 1250 1238 1245 1232 1245 1246 1238 1240 1234 1242 1242 1243 1241 1232 1241 1249 1247 1232 1241 1244 1242 1243 1234 1244 1242 1236 1250 1245 1230 1237 1232 1244 1246 1240 1241 1233 1240 1247 1238 1242 1234 1244 1234 1229 1253 1242 1229 1245 1234 1235 1236 1237 1230 1234 1237 1231 1229 1237 1239 1241 1226 1235 1243 1241 1240 1238 1240 1228 1240 1236 1236 1238 1246 1234 1238 1246 1240 1240 1233 1247 1225 1245 1246 1233 1239 1230 1240 1236 1241 1236 1247 1237 1242 1236 1238 1241 1235 1235 1236 1248 1245 1239 1234 1241 1233 1238 1242 1230 1244 1238 1243 1245 1249 1238 1237 1237 1248 1240 1251 1250 1246 1242 1239 1243 1234 1238 1242 1246 1239 1229 1239 1238 1245 1241 1254 1246 1243 1240 1235 1234 1244 1235 1228 1240 1241 1246 1237 1232 1236 1238 1244 1230 1241 1242 1242 1244 1237 1249 1245 1240 1239 1238 1245 1250 1247 1246 1240 1237 1241 1237 1237 1232 1232 1239 1249 1243 1232 1237 1236 1238 1242 1249 1241 1235 1241 1248 1231 1239 1236 1236 1251 1249 1245 1237 1247 1249 1231 1240 1232 1238 1238 1246 1252 1228 1237 1235 1235 1240 1243 1246 1238 1233 1237 1243 1250 1233 1233 1233 1245 1246 1244 1246 1234 1236 1245 1245 1239 1238 1238 1250 1247 1238 1235 1238 1248 1239 1243 1243 1248 1245 1249 1235 1243 1242 1242 1240 1244 1245 1239 1250 1246 1243 1245 1245 1241 1232 1235 1243 1249 1235 1246 1245 1244 1246 1242 1245 1253 1241 1236 1233 1253 1242 1246 1240 1234 1248 1244 1245 1245 1247 1244 1255 1248 1239 1248 1247 1243 1239 1246 1246 1243 1243 1244 1241 1243 1242 1245 1253 1240 1252 1252 1251 1249 1241 1246 1249 1249 1240 1244 1250 1259 1241 1251 1245 1242 1242 1240 1239 1239 1250 1239 1252 1246 1238 1235 1244 1242 1241 1249 1249 1248 1242 1242 1242 1233 1258 1241 1243 1253 1245 1243 1248 1241 1248 1247 1241 1243 1244 1249 1238 1251 1240 1255 1234 1252 1231 1251 1253 1241 1236 1239 1252 1256 1243 1251 1247 1242 1239 1254 1248 1239 1245 1248 1248 1246 1243 1242 1242 1256 1247 1248 1244 1241 1251 1238 1252 1251 1244 1245 1243 1243 1254 1243 1246 1243 1245 1246 1258 1244 1246 1249 1240 1256 1245 1243 1247 1247 1249 1243 1248 1230 1252 1242 1255 1248 1245 1255 1253 1242 1252 1252 1241 1257 1244 1247 1252 1241 1245 1247 1240 1247 1248 1242 1243 1248 1247 1250 1244 1247 1238 1243 1241 1244 1246 1242 1235 1245 1252 1252 1251 1241 1250 1249 1247 1237 1248 1246 1248 1255 1241 1242 1252 1240 1252 1245 1240 1247 1248 1253 1250 1244 1244 1245 1244 1251 1256 1248 1254 1249 1248 1243 1259 1246 1246 1258 1250 1255 1246 1248 1239 1239 1255 1248 1241 1245 1254 1243 1251 1261 1245 1257 1247 1232 1246 1247 1247 1246 1248 1258 1249 1254 1242 1258 1253 1246 1251 1244 1247 1249 1254 1241 1251 1252 1242 1249 1256 1253 1251 1242 1244 1248 1257 1246 1249 1256 1248 1253 1258 1252 1263 1250 1252 1252 1248 1245 1252 1248 1258 1243 1242 1249 1245 1255 1244 1264 1255 1243 1256 1242 1244 1249 1253 1252 1253 1256 1249 1249 1249 1254 1252 1256 1252 1253 1244 1255 1260 1244 1260 1245 1248 1243 1239 1259 1238 1245 1250 1255 1249 1251 1255 1253 1250 1249 1250 1244 1245 1246 1251 1250 1253 1256 1248 1249 1239 1251 1240 1252 1251 1260 1254 1255 1249 1254 1241 1243 1252 1249 1253 1249 1256 1248 1247 1250 1254 1248 1248 1254 1248 1239 1261 1259 1245 1260 1242 1248 1249 1254 1252 1250 1246 1249 1255 1248 1250 1242 1244 1248 1257 1253 1260 1255 1245 1249 1246 1250 1245 1254 1247 1249 1256 1244 1258 1244 1249 1245 1255 1274 1243 1252 1250 1250 1246 1250 1252 1248 1243 1252 1253 1258 1242 1250 1248 1253 1251 1253 1260 1256 1241 1252 1248 1241 1261 1246 1261 1249 1250 1248 1258 1258 1260 1256 1249 1253 1265 1256 1260 1242 1246 1251 1252 1252 1251 1253 1247 1252 1250 1272 1249 1254 1258 1259 1247 1253 1252 1245 1246 1253 1254 1253 1247 1252 1252 1251 1251 1253 1255 1258 1259 1263 1258 1253 1249 1251 1247 1249 1254 1255 1263 1246 1255 1248 1242 1260 1252 1251 1257 1253 1251 1245 1252 1252 1255 1254 1248 1251 1261 1256 1255 1241 1243 1268 1241 1250 1259 1252 1270 1250 1267 1245 1253 1253 1247 1250 1249 1255 1254 1250 1245 1255 1255 1249 1255 1255 1251 1252 1254 1251 1250 1255 1251 1254 1252 1246 1257 1253 1255 1252 1250 1255 1242 1241 1249 1253 1256 1271 1254 1252 1250 1247 1255 1243 1250 1259 1265 1255 1249 1251 1253 1261 1249 1255 1249 1250 1256 1257 1246 1250 1271 1254 1244 1253 1247 1259 1247 1247 1253 1254 1252 1256 1254 1256 1252 1248 1249 1265 1244 1246 1261 1244 1247 1250 1257 1260 1254 1245 1246 1253 1251 1260 1254 1252 1252 1256 1251 1260 1250 1251

Tree=0
num_leaves=10
num_cat=0
split_feature=78 7 7 135 111 65 39 8 113
split_gain=29.3651 16.4382 12.2298 8.85182 7.63352 4.63836 4.50544 4.03253 4.00373
threshold=0.0068083447404205808 0.00073092587990686308 0.00047558375808876013 0.0013986918493174019 0.00037263428384903824 0.10820819064974786 0.0027679565828293566 0.00747153488919139 0.0030382014811038975
decision_type=2 2 2 2 2 2 2 2 2
left_child=1 5 7 4 -4 6 -1 -2 -3
right_child=2 8 3 -5 -6 -7 -8 -9 -10
leaf_value=0.24286934546596584 0.2451337033111064 0.25315026626668863 0.25564297551068221 0.25012563582207731 0.26257873076129784 0.25840531033873593 0.24978597032719393 0.25482522311656308 0.24799201607753127
leaf_weight=2044.3452948331833 578.38445198535919 1600.5740087032318 2298.4475040435791 758.43259584903717 760.21568262577057 83.395848274230957 406.44649052619934 210.92402982711792 818.83436024188995
leaf_count=1380 362 725 904 398 252 32 210 87 430
internal_value=0.251074 0.247867 0.254522 0.255928 0.257367 0.24449 0.244016 0.247724 0.251404
internal_weight=0 4953.6 4606.4 3817.1 3058.66 2534.19 2450.79 789.308 2419.41
internal_count=4780 2777 2003 1554 1156 1622 1590 449 1155
is_linear=0
shrinkage=1


Tree=1
num_leaves=10
num_cat=0
split_feature=58 7 135 31 60 10 134 118 130
split_gain=27.2147 28.488 6.65264 6.54493 5.94525 5.36472 4.67216 4.5558 4.41092
threshold=0.0053125319536775359 0.00047558375808876013 0.0013986918493174019 0.0026833302108570938 0.0033348383149132137 0.0023699469165876512 0.00087947337306104611 0.00017767510871635753 0.000490355829242617
decision_type=2 2 2 2 2 2 2 2 2
left_child=1 7 3 5 -2 -3 -5 -1 -6
right_child=4 2 -4 6 8 -7 -8 -9 -10
leaf_value=-0.0080944845821146732 -0.0065282096580449537 0.0068190428313084995 0.00053575444420195283 0.0077078771011515933 -0.0025160723480841187 0.0013133817112418126 0.018236510486681647 -0.0019358232581155241 0.0096893723833830058
leaf_weight=730.54601228237152 2134.4776365756989 1201.6472852230072 1227.727100610733 1034.6627304553986 502.01438450813293 1356.2314139604568 177.80659294128418 1059.5617151260376 135.32539522647858
leaf_count=502 1344 428 588 354 277 634 39 572 42
internal_value=0 0.00204564 0.00437183 0.00562096 -0.00500978 0.00389985 0.00925188 -0.00444918 7.54913e-05
internal_weight=0 6788.18 4998.08 3770.35 2771.82 2557.88 1212.47 1790.11 637.34
internal_count=4780 3117 2043 1455 1663 1062 393 1074 319
is_linear=0
shrinkage=0.06


Tree=2
num_leaves=10
num_cat=0
split_feature=129 86 36 43 105 135 45 134 103
split_gain=37.7578 14.2184 6.27238 6.07494 6.44852 5.37396 4.77715 4.54714 4.32689
threshold=0.0053125319536775359 0.00040826165059115743 0.047455845400691039 0.00085274505545385193 0.00052132029668428015 0.0015833032084628942 0.021960759535431865 0.00087947337306104611 0.001792412775103003
decision_type=2 2 2 2 2 2 2 2 2
left_child=1 2 3 4 -1 7 8 -2 -3
right_child=5 6 -4 -5 -6 -7 -8 -9 -10
leaf_value=-0.0071949638446316775 0.0063387182927476396 0.0022485245270939575 0.011474366712290658 -0.0080013520490102574 -0.00074801275153816953 -7.314224123241562e-05 -0.011529421300943237 0.016772334448382654 -0.0053095749634748763
leaf_weight=892.07133340835571 2158.5544185638428 2369.3464971780777 84.468409180641174 1530.6528508663177 1493.8829485177994 453.89293563365936 107.35422325134277 161.63359093666077 308.14305937290192
leaf_count=591 804 1063 28 1034 737 226 82 35 180
internal_value=0 -0.00241091 -0.00470222 -0.0050511 -0.00315843 0.00589754 0.000881088 0.00706557 0.00137869
internal_weight=0 6785.92 4001.08 3916.61 2385.95 2774.08 2784.84 2320.19 2677.49
internal_count=4780 3715 2390 2362 1328 1065 1325 839 1243
is_linear=0
shrinkage=0.06


Tree=3
num_leaves=10
num_cat=0
split_feature=129 7 58 18 52 130 124 112 141
split_gain=33.3628 14.6487 8.15615 6.81217 5.57739 4.69339 4.49235 3.93628 3.34485
threshold=0.0053125319536775359 0.00047558375808876013 0.0045489775948226461 0.0054799309000372895 0.0060143163427710542 0.00062670491752214741 0.0053125319536775359 0.00017767510871635753 0.0005893622583243997
decision_type=2 2 2 2 2 2 2 2 2
left_child=1 3 4 5 7 -1 -6 -3 -9
right_child=-2 2 -4 -5 6 -7 -8 8 -10
leaf_value=-0.006953642340629413 0.0055436838110611928 0.0024327304957624933 -0.0037139884617466731 0.0035378029714732543 0.0083112372446555536 0.013370044439454136 -0.0046827873395531077 0.0051153151129025255 -0.0051088370967610529
leaf_weight=2446.0075554847717 2774.0809451341629 1163.9266359806061 1376.273421049118 263.14286410808563 637.55631935596466 41.601495027542114 112.71702778339386 142.43576443195343 602.25823855400085
leaf_count=1640 1065 499 779 112 211 11 62 53 348
internal_value=0 -0.00226626 3.54069e-05 -0.00564264 0.00197614 -0.00661376 0.00635908 0.000253211 -0.00315329
internal_weight=0 6785.92 4035.17 2750.75 2658.89 2487.61 750.273 1908.62 744.694
internal_count=4780 3715 1952 1763 1173 1651 273 900 401
is_linear=0
shrinkage=0.06


Tree=4
num_leaves=10
num_cat=0
split_feature=58 7 129 146 136 52 39 97 115
split_gain=20.6074 20.5645 8.45895 5.2498 5.35402 5.07595 4.81662 4.12997 3.80037
threshold=0.0053125319536775359 0.00047558375808876013 0.0053125319536775359 0.0041444667149335155 0.00040826165059115743 0.0060143163427710542 0.0027679565828293566 0.012636432424187662 0.024810968898236755
decision_type=2 2 2 2 2 2 2 2 2
left_child=1 3 5 7 -5 -3 -2 -1 -4
right_child=6 2 8 4 -6 -7 -8 -9 -10
leaf_value=-0.0078241260013037738 -0.0063629968531193721 -4.6607329002754466e-05 0.0082873828162682624 0.0021621398438581838 -0.0098641518171268504 0.0055491814269462338 -0.0012371233945240258 0.0078639617322730573 0.00291326826152472
leaf_weight=893.91532719135284 1688.3819146156311 1997.0781637430191 1479.7095729112625 664.72053635120392 166.68342673778534 824.51013350486755 1083.4355016946793 64.788437128067017 696.77725303173065
leaf_count=627 1105 956 479 308 118 307 558 21 301
internal_value=0 0.00178008 0.00375647 -0.00373809 -0.000248943 0.00158857 -0.00435942 -0.00676394 0.00656692
internal_weight=0 6788.18 4998.08 1790.11 831.404 2821.59 2771.82 958.704 2176.49
internal_count=4780 3117 2043 1074 426 1263 1663 648 780
is_linear=0
shrinkage=0.06


Tree=5
num_leaves=10
num_cat=0
split_feature=129 39 71 8 98 137 18 22 60
split_gain=26.4049 12.2588 6.05619 6.68608 4.11185 4.01788 5.39463 4.86303 3.79913
threshold=0.0053125319536775359 0.0027679565828293566 0.0033348383149132137 0.00244467705488205 0.0044099434744566688 0.0014881226234138014 0.010829726699739696 0.0014427106943912806 0.004017772153019906
decision_type=2 2 2 2 2 2 2 2 2
left_child=1 2 3 -1 -2 6 7 -3 -6
right_child=4 5 -4 -5 8 -7 -8 -9 -10
leaf_value=-0.0048574710198938716 0.0061001504671404257 -0.0029948952718048109 -0.0057401585495706594 0.0039119758957115291 -0.0043787409116606167 0.0055162060669796198 0.0071692975312180416 0.0041326223198309784 0.0054674428346910657
leaf_weight=660.99702668190002 2209.0256881713867 1465.2249320745468 2729.8065234422684 594.48470628261566 292.84976005554199 571.10490596294403 313.71056282520294 450.59066450595856 272.20549690723419
leaf_count=413 798 801 1750 243 162 223 111 174 105
internal_value=0 -0.00201614 -0.00415395 -0.000705039 0.00493185 0.00102596 -0.000124237 -0.00131854 0.000364486
internal_weight=0 6785.92 3985.29 1255.48 2774.08 2800.63 2229.53 1915.82 565.055
internal_count=4780 3715 2406 656 1065 1309 1086 975 267
is_linear=0
shrinkage=0.06


Tree=6
num_leaves=10
num_cat=0
split_feature=56 149 78 7 8 111 39 18 17
split_gain=15.8537 11.644 6.77341 5.53897 4.35893 4.06951 3.89957 3.73372 3.69791
threshold=0.00080172589514404546 0.0026012937305495147 0.0049928687512874612 0.00047558375808876013 0.0031340263085439806 0.0031340263085439806 0.010829726699739696 0.0031340263085439806 0.00017767510871635753
decision_type=2 2 2 2 2 2 2 2 2
left_child=1 2 4 -3 -1 6 -2 -5 -4
right_child=5 3 8 7 -6 -7 -8 -9 -10
leaf_value=-0.0046376141757484913 0.0015025754940312577 -0.0075617557923184208 -0.00015542612632391027 -0.0037169230157754031 0.0012012101117487837 0.012625651273740249 0.0072465933730738461 0.0030292185669874355 0.0041702012038675315
leaf_weight=1126.2787344455719 1044.9671009778976 1138.7282267808914 1229.1853779554367 1234.428071975708 778.41369593143463 212.77986431121826 717.73448491096497 388.23663651943207 1689.2480731010437
leaf_count=693 471 802 604 697 361 64 255 160 673
internal_value=0 -0.00124698 0.000531864 -0.00435396 -0.00225139 0.00478757 0.00384142 -0.00210285 0.00234833
internal_weight=0 7584.52 4823.13 2761.39 1904.69 1975.48 1762.7 1622.66 2918.43
internal_count=4780 3990 2331 1659 1054 790 726 857 1277
is_linear=0
shrinkage=0.06


Tree=7
num_leaves=10
num_cat=0
split_feature=7 43 65 106 60 18 57 58 93
split_gain=21.6267 8.02191 6.07658 5.64818 7.12339 4.20599 4.0338 4.06483 3.9325
threshold=0.00047558375808876013 0.0011261500185355546 0.10820819064974786 0.016668972559273246 0.0045489775948226461 0.0054799309000372895 0.0017376682371832433 0.00244467705488205 0.00096484774257987748
decision_type=2 2 2 2 2 2 2 2 2
left_child=2 3 5 4 6 -1 7 -2 -6
right_child=1 -3 -4 -5 8 -7 -8 -9 -10
leaf_value=-0.0055354302267252731 0.0035561312680352131 -0.0010257737971596174 0.0089818251695033668 -0.0048421692925679841 0.01084497411358995 0.0022113686143127712 0.011630655363416889 -0.0012594064048347621 0.0027218156534068259
leaf_weight=2592.3360064029694 1985.5202147960663 2202.6275483369827 120.32138323783875 279.11116719245911 699.71748912334442 279.50872433185577 166.40598011016846 925.03143417835236 309.42031919956207
leaf_count=1716 774 1122 39 165 215 126 44 452 127
internal_value=0 0.00192619 -0.004228 0.00341571 0.00397979 -0.00478146 0.00254511 0.00202566 0.00835426
internal_weight=0 6567.83 2992.17 4365.21 4086.1 2871.84 3076.96 2910.55 1009.14
internal_count=4780 2899 1881 1777 1612 1842 1270 1226 342
is_linear=0
shrinkage=0.06


Tree=8
num_leaves=10
num_cat=0
split_feature=7 149 65 56 60 39 53 18 56
split_gain=19.1093 7.50798 5.36927 4.13228 6.86459 3.97882 4.45968 3.50789 3.29986
threshold=0.00047558375808876013 0.00060774214216507982 0.10820819064974786 0.00042089859198313212 0.018276390619575981 0.0027679565828293566 0.0056525857653468856 0.0037758676335215573 0.00080172589514404546
decision_type=2 2 2 2 2 2 2 2 2
left_child=2 8 5 -3 7 -1 -7 -5 -2
right_child=1 3 -4 4 -6 6 -8 -9 -10
leaf_value=-0.0055133871074045972 0.0030279663978560775 -0.0016588421948821367 0.00844291572650651 -0.0010027837282562669 0.010639556841471694 -0.0053887004256380523 0.0060062903192974392 0.0050713070641821949 0.007865128167290401
leaf_weight=2377.1335736513138 1800.4103944301605 2071.7852549552917 120.32138323783875 1218.9537551403046 293.64487433433533 243.3546222448349 251.35653483867645 475.92272841930389 707.11714565753937
leaf_count=1586 714 1074 39 610 84 159 97 176 241
internal_value=0 0.00181062 -0.00397432 0.00021641 0.00217018 -0.00449457 0.000400951 0.000702826 0.00439204
internal_weight=0 6567.83 2992.17 4060.31 1988.52 2871.84 494.711 1694.88 2507.53
internal_count=4780 2899 1881 1944 870 1842 256 786 955
is_linear=0
shrinkage=0.06


Tree=9
num_leaves=10
num_cat=0
split_feature=129 7 105 134 14 2 103 125 12
split_gain=19.0796 7.95369 4.53985 4.35713 3.99646 4.95291 3.77551 3.61011 4.04395
threshold=0.0053125319536775359 0.0015833032084628942 0.00052132029668428015 0.00038414125447161501 0.0063990866765379914 0.0012745757703669371 0.00042089859198313212 0.086341444402933135 0.0019071503775194289
decision_type=2 2 2 2 2 2 2 2 2
left_child=1 2 -1 -3 5 -2 -4 8 -6
right_child=4 3 6 -5 7 -7 -8 -9 -10
leaf_value=-0.0061384047570660748 0.0060143665024117113 -0.0006080628401230778 -0.00073713630630509034 0.0049585581917655098 0.013719543091702013 -0.0047374847237518182 -0.0056909226804905105 0.014158075429047054 -0.0046747170274514076
leaf_weight=1351.7855377197266 2127.196387052536 1720.8835512399673 2262.7281847000122 717.14406955242157 48.519006013870239 166.29771029949188 733.37797856330872 51.92954695224762 380.13829481601715
leaf_count=940 728 823 1198 284 12 98 470 10 217
internal_value=0 -0.00171381 -0.003252 0.00102935 0.00419229 0.00523477 -0.00194971 -0.000782705 -0.0025927
internal_weight=0 6785.92 4347.89 2438.03 2774.08 2293.49 2996.11 480.587 428.657
internal_count=4780 3715 2608 1107 1065 826 1668 239 229
is_linear=0
shrinkage=0.06


Tree=10
num_leaves=10
num_cat=0
split_feature=147 56 18 18 107 97 141 133 99
split_gain=11.6007 6.48625 5.5951 5.40389 5.53086 6.1391 4.66409 3.99795 3.67031
threshold=0.00085274505545385193 0.00080172589514404546 0.0081988852471113222 0.0031340263085439806 0.004017772153019906 0.00017767510871635753 0.022641776129603389 0.0048403022810816774 0.0068083447404205808
decision_type=2 2 2 2 2 2 2 2 2
left_child=2 3 6 4 5 -2 -1 -8 -3
right_child=1 8 -4 -5 -6 -7 7 -9 -10
leaf_value=-0.005581850217672873 -0.0024487372802036978 0.0028488273196837803 0.0048385084255074704 0.003831021587198937 -0.0044534905212979528 0.0029214744575921346 -0.0094646864930641623 0.0073696106957659201 0.0092740700853794125
leaf_weight=1919.4562213420868 1402.2923294305801 1358.0990891456604 254.8635048866272 1145.8132110834122 1108.6474550962448 1689.8266477584839 68.873981833457947 193.3891795873642 418.73864674568176
leaf_count=1283 757 552 100 454 673 703 54 72 132
internal_value=0 0.00122239 -0.0035737 0.000178661 -0.000817568 0.000486055 -0.0045564 0.00294869 0.00436303
internal_weight=0 7123.42 2436.58 5346.58 4200.77 3092.12 2181.72 262.263 1776.84
internal_count=4780 3271 1509 2587 2133 1460 1409 126 684
is_linear=0
shrinkage=0.06


Tree=11
num_leaves=10
num_cat=0
split_feature=58 75 129 19 143 141 77 126 134
split_gain=12.5333 8.0249 5.59942 5.11307 4.27592 3.79818 3.5749 3.36613 2.60981
threshold=0.0053125319536775359 0.0005375427135732026 0.0053125319536775359 0.00017767510871635753 0.035692447796463973 0.010829726699739696 0.00057154725072905432 0.0045489775948226461 0.00087947337306104611
decision_type=2 2 2 2 2 2 2 2 2
left_child=1 -1 3 -3 5 6 -5 -2 -4
right_child=7 2 8 4 -6 -7 -8 -9 -10
leaf_value=-0.0031012311336423492 -0.0029044312218077417 -0.0078657077003238887 0.0040186909371018875 -0.0066149949982616668 0.0087510618654274286 0.0052467752491956142 0.00054503690134766495 -0.012225867031611718 0.01160538463961258
leaf_weight=1183.462816119194 2624.5246742963791 230.7850193977356 2136.6328955888748 287.58338463306427 260.32273852825165 537.30062460899353 1975.3613396883011 147.29274201393127 176.73403203487396
leaf_count=737 1537 163 800 187 85 199 903 126 43
internal_value=0 0.00138823 0.0023362 0.000746256 0.00139565 0.000711858 -0.000364886 -0.00339977 0.00459829
internal_weight=0 6788.18 5604.72 3291.35 3060.57 2800.25 2262.94 2771.82 2313.37
internal_count=4780 3117 2380 1537 1374 1289 1090 1663 843
is_linear=0
shrinkage=0.06


Tree=12
num_leaves=10
num_cat=0
split_feature=75 58 129 60 118 8 59 14 94
split_gain=10.7208 8.11123 4.94765 4.82037 3.71468 3.6191 5.13043 3.03481 3.11341
threshold=0.0005375427135732026 0.0053125319536775359 0.0053125319536775359 0.0033348383149132137 0.014293605927377941 0.0053125319536775359 0.031632266007363803 0.0063990866765379914 0.0042751494329422721
decision_type=2 2 2 2 2 2 2 2 2
left_child=4 2 5 -3 -1 -2 -7 8 -4
right_child=1 3 7 -5 -6 6 -8 -9 -10
leaf_value=-0.0047199119331375744 -0.0011021981473103295 -0.0040807268238874277 0.003788350891529269 0.0027387884884551841 0.004065405477262537 0.0017179055897785949 0.013453807551802094 -0.00071254096298430461 0.0091649308965039405
leaf_weight=1825.2501755952835 1806.6055388450623 1434.2289355993271 1416.1747142076492 504.36420524120331 191.43691599369049 1335.6835799217224 149.06398808956146 363.29028904438019 533.90192437171936
leaf_count=1227 916 863 523 220 90 582 39 178 142
internal_value=0 0.0010389 0.00219602 -0.00230649 -0.00388595 0.00070148 0.00289615 0.00432239 0.00526038
internal_weight=0 7543.31 5604.72 1938.59 2016.69 3291.35 1484.75 2313.37 1950.08
internal_count=4780 3463 2380 1083 1317 1537 621 843 665
is_linear=0
shrinkage=0.06


Tree=13
num_leaves=10
num_cat=0
split_feature=75 93 39 65 31 72 52 18 55
split_gain=9.47289 5.85957 4.86647 4.67405 3.66979 3.81524 3.54594 3.02113 3.60301
threshold=0.0005375427135732026 0.00096484774257987748 0.0056525857653468856 0.10820819064974786 0.0012357163941487672 0.001792412775103003 0.00899649551138282 0.13848232477903369 0.00099512818269431613
decision_type=2 2 2 2 2 2 2 2 2
left_child=3 2 4 -1 5 -2 -4 8 -3
right_child=1 7 6 -5 -6 -7 -8 -9 -10
leaf_value=-0.0042607325102394216 -0.0050849381786231586 -0.0017794017858937816 0.0037138993501989064 0.010071790391847473 0.0041083770068515236 0.001165687112448507 0.010914515867252205 0.01000552971805441 0.0046800246959159894
leaf_weight=1931.1461215019226 475.99547612667084 3042.5037288665771 946.09693586826324 85.540970087051392 964.89720523357391 1344.541513800621 332.81196022033691 90.216930150985718 346.2494250535965
leaf_count=1293 299 1570 352 24 373 624 88 28 129
internal_value=0 0.000976566 0.00252372 -0.0036528 0.00111691 -0.000468594 0.00558772 -0.00083091 -0.0011194
internal_weight=0 7543.31 4064.34 2016.69 2785.43 1820.54 1278.91 3478.97 3388.75
internal_count=4780 3463 1736 1317 1296 923 440 1727 1699
is_linear=0
shrinkage=0.06


Tree=14
num_leaves=10
num_cat=0
split_feature=129 36 8 143 92 147 106 18 58
split_gain=11.6926 5.83948 6.31891 3.92309 4.84601 3.26137 3.06211 2.93933 2.93295
threshold=0.0053125319536775359 0.047455845400691039 0.00244467705488205 0.035692447796463973 0.00244467705488205 0.068554218858480467 0.016668972559273246 0.13848232477903369 0.0045489775948226461
decision_type=2 2 2 2 2 2 2 2 2
left_child=1 2 5 8 -5 7 -2 -1 -4
right_child=6 -3 3 4 -6 -7 -8 -9 -10
leaf_value=-0.0048551788515838077 0.0037869969430416252 0.011451021499050968 0.00069305621409006236 0.011197478226435711 -0.0066944166488992008 0.0043892095298763353 -0.0045851308137425878 0.011239172431685316 -0.0026533785199052999
leaf_weight=2264.91053211689 2606.7106739282608 126.06990420818329 2324.816606760025 212.77986431121826 73.26065456867218 156.36721551418304 167.3702712059021 41.601495027542114 1586.1130492687225
leaf_count=1490 971 39 1079 64 43 60 94 11 929
internal_value=0 -0.00134163 -0.00158379 -0.000168019 0.00661501 -0.0039964 0.00328188 -0.00456489 -0.000664121
internal_weight=0 6785.92 6659.85 4196.97 286.041 2462.88 2774.08 2306.51 3910.93
internal_count=4780 3715 3676 2115 107 1561 1065 1501 2008
is_linear=0
shrinkage=0.06


Tree=15
num_leaves=10
num_cat=0
split_feature=58 75 129 49 56 18 135 60 7
split_gain=8.71634 4.98295 4.10506 3.53205 4.75719 3.59468 2.9303 2.86593 3.16804
threshold=0.0053125319536775359 0.0005375427135732026 0.02636832278221846 0.00096484774257987748 0.00080172589514404546 0.00017767510871635753 0.0013986918493174019 0.0033348383149132137 0.00073092587990686308
decision_type=2 2 2 2 2 2 2 2 2
left_child=1 -1 3 4 5 -3 -4 -2 -9
right_child=7 2 6 -5 -6 -7 -8 8 -10
leaf_value=-0.0023799738128085215 -0.003889445345398296 -0.0016855315390249404 0.0064544012669699256 -0.0034671915197720571 0.0051521224695875913 0.0024450074162239081 -0.0069641538000821341 -0.0056293754726607472 0.003524750139508686
leaf_weight=1183.462816119194 2134.4776365756989 1402.6898865699768 866.41275656223297 522.76691746711731 1098.4750357866287 1651.5392645597458 62.836173534393311 196.9807380437851 440.35904169082642
leaf_count=737 1344 718 274 280 384 685 39 139 180
internal_value=0 0.0011577 0.00190469 0.00118078 0.00176589 0.00054801 0.00554703 -0.0028352 0.000695511
internal_weight=0 6788.18 5604.72 4675.47 4152.7 3054.23 929.249 2771.82 637.34
internal_count=4780 3117 2380 2067 1787 1403 313 1663 319
is_linear=0
shrinkage=0.06


Tree=16
num_leaves=10
num_cat=0
split_feature=98 99 1 86 135 73 124 36 60
split_gain=8.23445 7.72033 4.51621 3.38301 3.74755 3.74401 2.9754 2.90982 3.58644
threshold=0.0044099434744566688 0.0084566329605877417 0.0018488886416889729 0.00037263428384903824 0.0063990866765379914 0.027182282879948619 0.00017767510871635753 0.0041444667149335155 0.00017767510871635753
decision_type=2 2 2 2 2 2 2 2 2
left_child=1 3 -2 5 7 -1 -6 -5 -9
right_child=2 -3 -4 4 6 -7 -8 8 -10
leaf_value=-0.0021227262325153326 -0.0048330918380143518 0.0058970680320473692 -0.00025094379370983001 0.0030751778760522868 0.0070442057688279878 0.0046221666978451519 -0.012008661629471153 0.0058320039332759224 -0.0071547772399830544
leaf_weight=2280.8297688961029 1549.7542482614517 1061.4530717134476 1547.6564892530441 2277.5985419750214 39.359944105148315 340.50090408325195 117.87513339519501 114.66929137706757 230.30287384986877
leaf_count=1302 1011 372 783 896 14 129 91 44 138
internal_value=0 0.00121909 -0.00254357 0.000299755 0.00175794 -0.00124659 -0.00723924 0.00229737 -0.00283795
internal_weight=0 6462.59 3097.41 5401.14 2779.81 2621.33 157.235 2622.57 344.972
internal_count=4780 2986 1794 2614 1183 1431 105 1078 182
is_linear=0
shrinkage=0.06


Tree=17
num_leaves=10
num_cat=0
split_feature=129 36 18 135 14 43 96 81 12
split_gain=8.968 5.04659 5.28766 3.31932 3.86533 3.66725 3.42778 2.87467 2.7231
threshold=0.0053125319536775359 0.047455845400691039 0.00017767510871635753 0.0015833032084628942 0.0063990866765379914 0.0011261500185355546 0.00093549740267917525 0.0018488886416889729 0.0019071503775194289
decision_type=2 2 2 2 2 2 2 2 2
left_child=1 2 -1 4 5 7 -7 -2 -6
right_child=3 -3 -4 -5 8 6 -8 -9 -10
leaf_value=-0.0029905570305993048 0.0011527917897350005 0.010717514360988169 0.00039702988110962252 -0.0018182806589710334 0.014009354367423609 -0.016343852436920454 0.0015774460363477286 0.0074066613629679952 -0.0027862448707059676
leaf_weight=3533.0582970380783 334.84881222248077 126.06990420818329 3126.7911205291748 453.89293563365936 38.09452497959137 45.59061062335968 244.34259474277496 1261.2894574403763 396.02200949192047
leaf_count=2147 134 39 1529 226 8 39 91 361 206
internal_value=0 -0.00117497 -0.00140009 0.00287419 0.00379216 0.00496708 -0.00124059 0.00609468 -0.0013124
internal_weight=0 6785.92 6659.85 2774.08 2320.19 1886.07 289.933 1596.14 434.117
internal_count=4780 3715 3676 1065 839 625 130 495 214
is_linear=0
shrinkage=0.06


Tree=18
num_leaves=10
num_cat=0
split_feature=58 7 134 36 107 108 129 9 70
split_gain=6.81742 5.49028 3.43353 3.22832 3.18879 4.19511 3.23126 2.8114 2.74983
threshold=0.0053125319536775359 0.00047558375808876013 0.0011261500185355546 0.047455845400691039 0.004017772153019906 0.0051502294372767219 0.0053125319536775359 0.00073092587990686308 0.0012357163941487672
decision_type=2 2 2 2 2 2 2 2 2
left_child=1 -1 3 4 -3 -6 8 -4 -7
right_child=-2 2 7 -5 5 6 -8 -9 -10
leaf_value=-0.0018273862056493438 -0.0025074174980112031 0.0021243132243470909 0.012855058420439465 0.011128746065296364 -0.008266144262692305 -0.0095302705110099969 0.0066046840460617763 0.0021863837243339184 0.0011525294116785149
leaf_weight=1790.1077274084091 2771.8174163103104 3648.3636630773544 184.82053303718567 124.80448508262634 261.96203339099884 131.71015536785126 220.96279442310333 171.37122750282288 254.08023130893707
leaf_count=1074 1663 1449 45 33 170 93 71 63 119
internal_value=0 0.00102385 0.00204505 0.00160942 0.00134641 -0.00192057 0.000819099 0.00772214 -0.00249461
internal_weight=0 6788.18 4998.08 4641.88 4517.08 868.715 606.753 356.192 385.79
internal_count=4780 3117 2043 1935 1902 453 283 108 212
is_linear=0
shrinkage=0.06


Tree=19
num_leaves=10
num_cat=0
split_feature=129 126 8 59 71 127 133 81 72
split_gain=7.32514 4.21327 4.05052 3.85112 3.60924 2.8566 3.6797 3.65936 2.512
threshold=0.0053125319536775359 0.0045489775948226461 0.0048403022810816774 0.031632266007363803 0.004017772153019906 0.00017767510871635753 0.0022272822679951791 0.00080172589514404546 0.011169348377734424
decision_type=2 2 2 2 2 2 2 2 2
left_child=1 2 5 4 -4 6 7 -1 -6
right_child=-2 -3 3 -5 8 -7 -8 -9 -10
leaf_value=-0.0041458577318137886 0.0025976173236509372 -0.0083297176635738109 0.0035558832811493166 0.0091783073685924033 -0.00017499279351624399 -0.0041015688763818559 -0.0031050805677252588 0.0038826523965121216 -0.0062094931615570646
leaf_weight=275.01378178596497 2774.0809451341629 275.49592733383179 857.24185395240784 190.85834133625031 1494.7508105039597 1484.9776518344879 1114.0102596282959 795.75568795204163 297.81500744819641
leaf_count=191 1065 216 335 60 782 931 653 366 181
internal_value=0 -0.0010619 -0.000754359 0.000946664 0.000353762 -0.00207108 -0.00069097 0.00182063 -0.00117756
internal_weight=0 6785.92 6510.42 2840.67 2649.81 3669.76 2184.78 1070.77 1792.57
internal_count=4780 3715 3499 1358 1298 2141 1210 557 963
is_linear=0
shrinkage=0.06


Tree=20
num_leaves=10
num_cat=0
split_feature=129 39 128 36 93 96 76 90 21
split_gain=6.4725 4.24717 4.14315 3.34916 3.34459 2.93588 3.96579 2.96181 2.76158
threshold=0.0053125319536775359 0.0019071503775194289 0.028884131461381916 0.013439828064292671 0.0084566329605877417 0.0042751494329422721 0.00093549740267917525 0.00055427959887310873 0.015675474889576439
decision_type=2 2 2 2 2 2 2 2 2
left_child=1 2 5 -4 8 6 7 -1 -3
right_child=-2 4 3 -5 -6 -7 -8 -9 -10
leaf_value=-0.0014628640533400341 0.0024417602286492574 0.0016731079585531031 -0.002091952952553989 0.016404160083401453 -0.0035128145621736964 -0.0064566004478183456 -0.0071705370387681955 0.0086379970534808254 -0.012207568141335903
leaf_weight=2060.5538189411163 2774.0809451341629 2698.6396466493607 67.415704488754272 73.851069927215576 607.03062772750854 671.12037968635559 444.61376321315765 110.0897604227066 52.604550719261169
leaf_count=1207 1065 1207 38 14 357 461 341 45 45
internal_value=0 -0.000998191 -0.00248398 0.0075774 0.000518289 -0.00291647 -0.00200801 -0.000950573 0.00140771
internal_weight=0 6785.92 3427.64 141.267 3358.27 3286.38 2615.26 2170.64 2751.24
internal_count=4780 3715 2106 52 1609 2054 1593 1252 1252
is_linear=0
shrinkage=0.06


Tree=21
num_leaves=10
num_cat=0
split_feature=7 106 135 115 105 93 96 33 18
split_gain=5.76121 3.4255 3.64339 3.07281 2.83737 3.57104 3.77945 2.70605 2.51365
threshold=0.00047558375808876013 0.020035739988088611 0.0013986918493174019 0.013032016810029747 0.00052132029668428015 0.00096484774257987748 0.0054799309000372895 0.0053125319536775359 0.0010585968848317864
decision_type=2 2 2 2 2 2 2 2 2
left_child=3 2 8 4 -1 6 7 -6 -2
right_child=1 -3 -4 -5 5 -7 -8 -9 -10
leaf_value=-0.0051807494471281272 0.0011561595038076208 -0.0042884955544055942 -0.0010048493950755178 0.0033831969068950328 0.0050621563233779719 -0.0039155502316594419 -0.0082784583972932615 -0.007192016102303132 0.0041078589130679327
leaf_weight=1101.899120926857 2790.3266948461533 414.03900527954102 1708.9889521598816 319.06152665615082 555.41404950618744 829.13873076438904 113.19917333126068 73.453512787818909 1654.4795006513596
leaf_count=800 1192 246 862 150 244 547 87 53 599
internal_value=0 0.000994171 0.0013496 -0.00218222 -0.0028465 -0.00120948 0.00181412 0.00363083 0.00225486
internal_weight=0 6567.83 6153.8 2992.17 2673.1 1571.21 742.067 628.868 4444.81
internal_count=4780 2899 2653 1881 1731 931 384 297 1791
is_linear=0
shrinkage=0.06


Tree=22
num_leaves=10
num_cat=0
split_feature=129 8 58 52 97 135 93 92 93
split_gain=5.31555 4.8662 2.90859 3.74506 2.8205 2.79105 2.93541 2.39563 2.35624
threshold=0.02636832278221846 0.0031340263085439806 0.0053125319536775359 0.0060143163427710542 0.0098710241727530974 0.0013986918493174019 0.0033348383149132137 0.00055427959887310873 0.0084566329605877417
decision_type=2 2 2 2 2 2 2 2 2
left_child=1 4 3 8 -1 7 -7 -2 -3
right_child=5 2 -4 -5 -6 6 -8 -9 -10
leaf_value=-0.0026657912478009146 -0.0016588808816562347 0.0012232536926781372 -0.001448212887412616 0.0048974798530702062 0.0031755729553057744 -0.016476044406961352 0.0061388449816762308 0.0062835493572345304 -0.0042050553270204308
leaf_weight=3341.8260799646378 164.74300384521484 2048.5374058485031 1495.0282571315765 960.90808963775635 326.6658821105957 46.759600639343262 37.021964073181152 803.57658302783966 334.93340063095093
leaf_count=2008 77 882 856 345 127 40 12 235 198
internal_value=0 -0.000497524 0.000751823 0.0017353 -0.00214564 0.00402327 -0.00648282 0.00493228 0.000460449
internal_weight=0 8507.9 4839.41 3344.38 3668.49 1052.1 83.7816 968.32 2383.47
internal_count=4780 4416 2281 1425 2135 364 52 312 1080
is_linear=0
shrinkage=0.06


Tree=23
num_leaves=10
num_cat=0
split_feature=72 58 93 134 36 8 83 102 20
split_gain=4.91952 3.84859 3.42279 3.39488 3.46768 2.68343 1.95145 2.16194 1.8878
threshold=0.0012357163941487672 0.001792412775103003 0.00096484774257987748 0.00070876078098081063 0.047455845400691039 0.00747153488919139 0.02636832278221846 0.010829726699739696 0.018276390619575981
decision_type=2 2 2 2 2 2 2 2 2
left_child=5 3 6 4 8 -1 7 -3 -2
right_child=1 2 -4 -5 -6 -7 -8 -9 -10
leaf_value=-0.0034335151235177679 0.0014572952673859291 0.0030492555461620117 -0.0019764257923926645 0.0082037069565631428 0.011136982803560722 0.0020023520038709264 -0.0036970195756523285 -0.0037609890586192247 -0.0087894231879741599
leaf_weight=1835.4817984104156 2657.7368367910385 1405.8348215818405 2327.3119229078293 318.09723556041718 132.79455697536469 397.78141486644745 228.06132292747498 190.557213306427 66.343143582344055
leaf_count=1221 1113 583 1268 100 30 178 141 104 42
internal_value=0 0.000751447 -0.000451095 0.00232396 0.00166928 -0.0024653 0.00149465 0.00223633 0.00120774
internal_weight=0 7326.74 4151.77 3174.97 2856.87 2233.26 1824.45 1596.39 2724.08
internal_count=4780 3381 2096 1285 1185 1399 828 687 1155
is_linear=0
shrinkage=0.06


Tree=24
num_leaves=10
num_cat=0
split_feature=98 60 84 21 58 99 63 124 31
split_gain=5.08068 3.17045 3.79319 3.17539 3.09571 5.17135 2.75229 2.46947 2.40196
threshold=0.0044099434744566688 0.010829726699739696 0.000490355829242617 0.002945306478068233 0.0081988852471113222 0.0056525857653468856 0.0068083447404205808 0.0038949446752667431 0.00070876078098081063
decision_type=2 2 2 2 2 2 2 2 2
left_child=1 4 3 -3 5 -1 -4 -7 -9
right_child=-2 2 6 -5 -6 7 -8 8 -10
leaf_value=-2.556155592590144e-06 -0.0019979615908488789 -0.0029825626766672979 0.0052988070730066485 0.013726054252463057 -0.0031307499344477123 0.0067604594558224951 0.015990158336933343 -0.0055406632802375618 0.0043832153286229329
leaf_weight=3893.4184871912003 3097.4107375144958 262.35959053039551 304.35864269733429 48.519006013870239 743.41674315929413 710.43125748634338 121.20108592510223 138.24194991588593 240.64276647567749
leaf_count=1875 1794 131 103 12 454 234 25 74 78
internal_value=0 0.000957589 0.0046633 -0.000374839 0.000480999 0.00101987 0.00834375 0.0046742 0.000762335
internal_weight=0 6462.59 736.438 310.879 5726.15 4982.73 425.56 1089.32 378.885
internal_count=4780 2986 271 143 2715 2261 128 386 152
is_linear=0
shrinkage=0.06


Tree=25
num_leaves=10
num_cat=0
split_feature=98 99 1 60 9 101 18 130 36
split_gain=4.48929 5.16845 3.31723 2.96499 2.91797 2.91744 2.73381 2.62972 2.07887
threshold=0.0044099434744566688 0.0084566329605877417 0.0018488886416889729 0.0033348383149132137 0.0026012937305495147 0.0087224207818508166 0.0031340263085439806 0.00062670491752214741 0.047455845400691039
decision_type=2 2 2 2 2 2 2 2 2
left_child=1 5 -2 -4 -3 8 -5 -7 -1
right_child=2 4 3 6 -6 7 -8 -9 -10
leaf_value=-0.00053864802487657256 -0.003840293946479242 0.0055322937044291207 -0.0019641129522949934 0.00045004840970998896 -0.0075720043199922439 0.0022913453228787621 0.0090457770692961379 0.012851238058760629 0.0080795406634487643
leaf_weight=4680.5818471908569 1549.7542482614517 996.2789181470871 961.35471308231354 381.7048419713974 65.174153566360474 515.95767629146576 204.59693419933319 101.61754298210144 102.97939121723175
leaf_count=2332 1011 331 547 179 41 225 57 23 34
internal_value=0 0.000900134 -0.00187808 8.67858e-05 0.00472768 0.00014793 0.00344963 0.0040289 -0.000353118
internal_weight=0 6462.59 3097.41 1547.66 1061.45 5401.14 586.302 617.575 4783.56
internal_count=4780 2986 1794 783 372 2614 236 248 2366
is_linear=0
shrinkage=0.06


Tree=26
num_leaves=10
num_cat=0
split_feature=130 112 126 124 36 22 74 45 52
split_gain=3.94119 3.93771 3.89822 3.35499 2.64483 2.93772 2.77066 3.10068 2.29754
threshold=0.00090704852482303988 0.00082683752407319855 0.0045489775948226461 0.0022272822679951791 0.047455845400691039 0.00060774214216507982 0.00064626874518580746 0.0016846025246195497 0.00899649551138282
decision_type=2 2 2 2 2 2 2 2 2
left_child=1 2 4 -2 5 6 7 -1 -7
right_child=3 -3 -4 -5 -6 8 -8 -9 -10
leaf_value=-0.003829289582253819 0.0085764010607153641 -0.0025753644310249624 -0.0076548173250982291 0.0008354724670942813 0.0087877510352623554 0.0010917096713400959 0.0023994494603875914 5.8904482031521188e-05 0.0057052136671287531
leaf_weight=1117.8065170049667 335.34279847145081 2196.7470761537552 211.29790556430817 505.2439079284668 139.90492618083954 1375.0435240268707 961.87238073348999 2175.0539335012436 541.68729734420776
leaf_count=671 100 1294 166 206 41 596 395 1123 188
internal_value=0 -0.000378254 0.000361704 0.00392363 0.000630088 0.000445157 -0.000433475 -0.001261 0.00239553
internal_weight=0 8719.41 6522.67 840.587 6311.37 6171.46 4254.73 3292.86 1916.73
internal_count=4780 4474 3180 306 3014 2973 2189 1794 784
is_linear=0
shrinkage=0.06


Tree=27
num_leaves=10
num_cat=0
split_feature=43 135 18 101 18 4 75 49 102
split_gain=3.98355 3.65323 3.58115 3.53247 3.78774 2.82079 2.90268 2.57957 2.74031
threshold=0.0011261500185355546 0.0023699469165876512 0.0013986918493174019 0.0060143163427710542 0.0037758676335215573 0.0005375427135732026 0.00017767510871635753 0.00087947337306104611 0.00052132029668428015
decision_type=2 2 2 2 2 2 2 2 2
left_child=1 3 -2 -1 5 -5 -7 8 -3
right_child=2 7 -4 4 -6 6 -8 -9 -10
leaf_value=0.00066118189691433387 -0.0030159748951052476 -0.012107670369888416 0.0011536707811061761 -0.0047229598041479927 0.010290380237247954 -0.0098171515183853621 0.0056477766729202562 -0.013215112649883565 0.00014388490904688588
leaf_weight=4636.4850360155106 2276.2265565395355 79.491321086883545 1099.8132026195526 162.8871693611145 295.78999614715576 47.928590655326843 494.33728134632111 87.577822089195251 379.4632910490036
leaf_count=2132 1421 68 513 100 76 41 177 70 182
internal_value=0 0.000904957 -0.00165763 0.00135903 0.00459154 0.00220105 0.0042809 -0.00377874 -0.00197809
internal_weight=0 6183.96 3376.04 5637.43 1000.94 705.153 542.266 546.532 458.955
internal_count=4780 2846 1934 2526 394 318 218 320 250
is_linear=0
shrinkage=0.06


Tree=28
num_leaves=10
num_cat=0
split_feature=126 112 39 80 78 115 144 141 98
split_gain=3.78596 3.49258 3.43059 3.30477 2.70256 2.61678 2.77464 2.84063 2.60093
threshold=0.0045489775948226461 0.0014881226234138014 0.0027679565828293566 0.0036604277556762104 0.016668972559273246 0.013032016810029747 0.00082683752407319855 0.0010263677686452868 0.0044099434744566688
decision_type=2 2 2 2 2 2 2 2 2
left_child=1 2 5 4 -4 8 -7 -8 -1
right_child=-2 -3 3 -5 -6 6 7 -9 -10
leaf_value=-0.00010689784866285001 -0.0060940523624780406 -0.0023322469510170243 -0.0014477356035288397 0.0039932147039544869 0.0031242885246103038 0.0070667171985899328 0.0042233237885829916 -0.0024874541455094262 -0.003963777051921703
leaf_weight=1756.4235565662384 353.43254196643829 1581.3406600952148 1160.6006834506989 1730.861408829689 777.06368839740753 282.34069061279297 386.58550095558167 550.34053230285645 981.01100373268127
leaf_count=937 263 920 565 625 291 94 134 279 672
internal_value=0 0.000233946 0.00076613 0.00208782 0.000385788 -0.000459301 0.00185271 0.000281483 -0.00148908
internal_weight=0 9206.57 7625.23 3668.53 1937.66 3956.7 1219.27 936.926 2737.43
internal_count=4780 4517 3597 1481 856 2116 507 413 1609
is_linear=0
shrinkage=0.06


Tree=29
num_leaves=10
num_cat=0
split_feature=126 130 112 72 48 124 148 98 140
split_gain=3.34528 3.38048 3.24357 2.35041 2.31784 2.24065 2.1956 1.86271 2.62704
threshold=0.0045489775948226461 0.00090704852482303988 0.00082683752407319855 0.030689206905663017 0.00064626874518580746 0.0022272822679951791 0.023343417793512348 0.0044099434744566688 0.0068083447404205808
decision_type=2 2 2 2 2 2 2 2 2
left_child=1 2 4 5 7 -3 -5 -1 -9
right_child=-2 3 -4 6 -6 -7 -8 8 -10
leaf_value=0.00094764394305951608 -0.0057284091833154568 0.0089943855215721333 -0.0021861508142262459 0.0033438029631630405 0.0053436211687022837 0.0021687971722203865 -0.014148206249241548 -0.0041704714715477898 0.0005615806769723689
leaf_weight=4224.2900245189667 353.43254196643829 309.72144722938538 2088.3202919960022 57.870926141738892 342.26030945777893 392.6233092546463 46.663171529769897 716.91568922996521 1027.9025555849075
leaf_count=1922 263 83 1216 20 101 149 35 451 540
internal_value=0 0.000219909 -0.000136431 0.00392944 0.000541785 0.00517876 -0.00446449 0.000266455 -0.00138274
internal_weight=0 9206.57 8399.69 806.879 6311.37 702.345 104.534 5969.11 1744.82
internal_count=4780 4517 4230 287 3014 232 55 2913 991
is_linear=0
shrinkage=0.06


Tree=30
num_leaves=10
num_cat=0
split_feature=111 36 131 19 18 101 49 43 72
split_gain=2.99317 2.76031 3.32607 3.83548 2.97208 2.80932 2.23451 2.932 2.39011
threshold=0.0031340263085439806 0.047455845400691039 0.040252277627587325 0.00096484774257987748 0.0045489775948226461 0.0060143163427710542 0.0014881226234138014 0.0045489775948226461 0.0012357163941487672
decision_type=2 2 2 2 2 2 2 2 2
left_child=1 2 4 -4 6 -6 8 -8 -1
right_child=-2 -3 3 -5 5 -7 7 -9 -10
leaf_value=-0.0026331557914166686 0.0062734717054305379 0.0070065564054053323 -0.010445822746614148 0.0050916194901785431 0.00018028369089597823 0.0062816604256299433 -0.008148106729218195 0.0030353091238106184 -0.00013586194560986507
leaf_weight=1951.3200798034668 266.16768860816956 188.52036130428314 62.932602643966675 627.42112565040588 927.86340045928955 384.15109181404114 328.3051769733429 113.59673047065735 4709.7220091819763
leaf_count=1266 90 58 44 222 420 127 212 48 2293
internal_value=0 -0.000179667 -0.000328454 0.00367523 -0.000656911 0.00196674 -0.00114154 -0.00527326 -0.000867432
internal_weight=0 9293.83 9105.31 690.354 8414.96 1312.01 7102.94 441.902 6661.04
internal_count=4780 4690 4632 266 4366 547 3819 260 3559
is_linear=0
shrinkage=0.06


Tree=31
num_leaves=10
num_cat=0
split_feature=129 145 105 93 105 134 96 16 67
split_gain=3.39864 2.61162 2.60274 3.62695 2.04576 1.92773 3.874 3.5069 2.52155
threshold=0.02636832278221846 0.0072436286136507997 0.00042089859198313212 0.00096484774257987748 0.017724351026117805 0.00043393640953581786 0.0092791137285530585 0.000490355829242617 0.013860232196748258
decision_type=2 2 2 2 2 2 2 2 2
left_child=2 -2 -1 5 -5 6 7 -4 -9
right_child=1 -3 3 4 -6 -7 -8 8 -10
leaf_value=-0.0026244954674380714 0.0039484585963509939 -0.0090007922734554671 0.002256253520674472 -0.0016019990241205255 0.0035653587583339827 0.0048064352233811985 -0.0066417009583035593 -0.0091161362202938252 0.0086779911064274861
leaf_weight=1546.3437073230743 992.67551898956299 59.42563259601593 2276.5141403675079 3412.5914183855057 300.06839907169342 547.7251056432724 224.6507819890976 165.32157850265503 34.683984041213989
leaf_count=1013 323 41 959 1862 119 203 143 107 10
internal_value=0 0.00321705 -0.000397826 9.6776e-05 -0.00118436 0.00156079 0.000902654 0.00158702 -0.00603037
internal_weight=0 1052.1 8507.9 6961.56 3712.66 3248.9 2701.17 2476.52 200.006
internal_count=4780 364 4416 3403 1981 1422 1219 1076 117
is_linear=0
shrinkage=0.06


Tree=32
num_leaves=10
num_cat=0
split_feature=31 78 22 49 71 93 136 131 92
split_gain=2.65635 2.6519 3.12825 2.71167 2.68008 2.47981 2.43733 2.28159 2.00049
threshold=0.0014427106943912806 0.12087306752800943 0.00073092587990686308 0.0011615398107096555 0.025578102096915249 0.00082683752407319855 0.0013560238294303419 0.0013146653072908523 0.00082683752407319855
decision_type=2 2 2 2 2 2 2 2 2
left_child=1 2 3 4 6 -2 7 -1 -5
right_child=5 -3 -4 8 -6 -7 -8 -9 -10
leaf_value=-0.0012098418485232746 0.0030580588853554454 0.005006345304193598 0.0015667194797910451 -0.0023787428906465683 -0.0039683606964597985 -0.00030536918752202541 -0.0059098517595728419 0.0022076298702308084 -0.013256924159225776
leaf_weight=2095.635360121727 1623.9774904251099 280.09913969039917 1366.0773203372955 120.80352878570557 1077.7478877305984 1535.098727107048 279.4004545211792 1058.5128356218338 122.6475225687027
leaf_count=1178 627 97 608 64 740 728 180 458 100
internal_value=0 -0.000702625 -0.000963877 -0.00169094 -0.00135808 0.00142366 -0.000538742 -6.29592e-05 -0.00785903
internal_weight=0 6400.92 6120.82 4754.75 4511.3 3159.08 3433.55 3154.15 243.451
internal_count=4780 3425 3328 2720 2556 1355 1816 1636 164
is_linear=0
shrinkage=0.06


Tree=33
num_leaves=10
num_cat=0
split_feature=43 60 41 109 124 145 119 135 141
split_gain=2.76601 3.59348 2.80453 2.90504 2.24523 3.03952 2.38025 2.32141 2.1354
threshold=0.0012745757703669371 0.0017376682371832433 0.00040826165059115743 0.0058306583669036635 0.0063990866765379914 0.00080172589514404546 0.00044738779251929378 0.0013986918493174019 0.00085274505545385193
decision_type=2 2 2 2 2 2 2 2 2
left_child=1 -1 3 8 5 -3 -7 -6 -2
right_child=2 4 -4 -5 7 6 -8 -9 -10
leaf_value=-0.00031020883168952446 -0.0015446955164486137 0.0074590485374244333 0.0025134151475860625 -0.00080724864066835484 0.0011330243204953354 -8.2412544491333812e-05 0.0072553630501950659 -0.010324233982210688 -0.0074370496255822425
leaf_weight=4168.914414525032 379.25859212875366 578.41997408866882 537.68634104728699 1750.4703366756439 708.76828122138977 620.49177396297455 214.04528343677521 69.946542739868164 531.99872708320618
leaf_count=2091 231 185 219 986 267 280 70 50 401
internal_value=0 0.000723829 -0.00143901 -0.00223742 0.00269074 0.0041164 0.00179961 0.000103898 -0.0049847
internal_weight=0 6360.59 3199.41 2661.73 2191.67 1412.96 834.537 778.715 911.257
internal_count=4780 2943 1837 1618 852 535 350 317 632
is_linear=0
shrinkage=0.06


Tree=34
num_leaves=10
num_cat=0
split_feature=126 98 129 99 57 28 4 36 49
split_gain=2.80802 2.55315 2.01905 2.61632 2.83146 2.01509 3.8665 3.07336 2.45907
threshold=0.0045489775948226461 0.0044099434744566688 0.02636832278221846 0.013439828064292671 0.0017376682371832433 0.00085274505545385193 0.00046126570669002836 0.022641776129603389 0.0012745757703669371
decision_type=2 2 2 2 2 2 2 2 2
left_child=1 2 3 4 5 6 -1 -8 -7
right_child=-2 -3 -4 -5 -6 8 7 -9 -10
leaf_value=-0.0022735653543588664 -0.0052482889962428714 -0.0012442779661775128 0.0035961428908320527 0.0040869288522223657 0.0063674602615256372 -0.0011103352594444415 0.0020759782694030515 0.014108230331276773 -0.0088009193601371397
leaf_weight=889.45590674877167 353.43254196643829 2975.9322049617767 857.25369465351105 632.00065660476685 237.13579642772675 1980.9051617383957 1391.1082562208176 80.865010023117065 161.91103756427765
leaf_count=515 263 1695 276 221 75 952 654 20 109
internal_value=0 0.000201477 0.000892012 0.000460603 -2.27667e-05 -0.000359194 0.000849713 0.00273699 -0.00169144
internal_weight=0 9206.57 6230.64 5373.38 4741.38 4504.25 2361.43 1471.97 2142.82
internal_count=4780 4517 2822 2546 2325 2250 1189 674 1061
is_linear=0
shrinkage=0.06


Tree=35
num_leaves=10
num_cat=0
split_feature=126 130 124 98 1 58 137 137 59
split_gain=2.48116 2.38756 2.25897 2.18783 2.9848 2.43169 2.21411 1.9693 1.86521
threshold=0.0045489775948226461 0.00090704852482303988 0.0022272822679951791 0.0044099434744566688 0.0018488886416889729 0.0081988852471113222 0.0046923852059990176 0.00017767510871635753 0.00080172589514404546
decision_type=2 2 2 2 2 2 2 2 2
left_child=1 3 -3 5 7 -1 -7 -5 -6
right_child=-2 2 -4 4 8 6 -8 -9 -10
leaf_value=0.0010419178521452852 -0.0049333916645379642 0.0071167366869343916 0.00066145050338713748 -0.0019875659762028423 -0.0064412205537876044 -0.0036011142846377928 0.010309463158615318 -0.006931354471742146 0.0011880226954454115
leaf_weight=4920.2958446741104 353.43254196643829 330.66683840751648 476.21201574802399 982.38469266891479 127.03419530391693 658.75547575950623 43.939475059509277 411.59275543689728 1255.6864318847656
leaf_count=2183 263 96 191 624 89 416 13 298 607
internal_value=0 0.000189389 0.00330689 -0.00011008 -0.00148807 0.000570387 -0.00273129 -0.00344729 0.000487104
internal_weight=0 9206.57 806.879 8399.69 2776.7 5622.99 702.695 1393.98 1382.72
internal_count=4780 4517 287 4230 1618 2612 429 922 696
is_linear=0
shrinkage=0.06


Tree=36
num_leaves=10
num_cat=0
split_feature=18 149 83 8 134 135 87 77 96
split_gain=2.44014 3.24434 2.70535 2.48363 2.45682 2.32093 3.04196 2.15629 2.02594
threshold=0.0037758676335215573 0.000490355829242617 0.011519505176693203 0.0015833032084628942 0.00070876078098081063 0.0027679565828293566 0.0022975050378590827 0.0013146653072908523 0.0023699469165876512
decision_type=2 2 2 2 2 2 2 2 2
left_child=1 3 5 8 7 -2 -7 -5 -1
right_child=2 -3 -4 4 -6 6 -8 -9 -10
leaf_value=2.6877476643799994e-05 0.0014173201020831845 -0.0013746490879808907 0.004949669934385479 -0.0028961713544286278 0.010672777070582793 -0.014297376182901984 0.001095235899520478 0.003023051348095997 -0.00732035954443872
leaf_weight=1002.0883461236954 874.87313330173492 4983.9897429943085 689.77515363693237 268.30096971988678 127.04603600502014 85.336271166801453 100.83426940441132 1271.5938279628754 156.16251659393311
leaf_count=513 355 2803 236 141 30 73 42 478 109
internal_value=0 -0.000453887 0.00202447 0.00117045 0.00265335 0.00012283 -0.00596038 0.00199173 -0.000963722
internal_weight=0 7809.18 1750.82 2825.19 1666.94 1061.04 186.171 1539.89 1158.25
internal_count=4780 4074 706 1271 649 470 115 619 622
is_linear=0
shrinkage=0.06


Tree=37
num_leaves=10
num_cat=0
split_feature=129 57 18 15 145 96 4 5 133
split_gain=2.30811 2.57116 2.5208 2.96805 2.19224 2.14927 2.14136 3.11697 2.821
threshold=0.02636832278221846 0.010180860292166473 0.0037758676335215573 0.0068083447404205808 0.0072436286136507997 0.0054799309000372895 0.00046126570669002836 0.0044099434744566688 0.0015349716995842757
decision_type=2 2 2 2 2 2 2 2 2
left_child=1 2 6 -4 -2 -5 8 -8 -1
right_child=4 -3 3 5 -6 -7 7 -9 -10
leaf_value=0.0004456995102751105 0.0033212559631202038 0.0088438000407713678 -0.00077885239819471485 0.0021664414164049061 -0.0085428191257937939 0.009025703603224456 0.00039855527290100435 -0.0039665603008444354 -0.0041467182563388969
leaf_weight=743.91072940826416 992.67551898956299 108.63148307800293 791.17615699768066 477.38100576400757 59.42563259601593 250.87438929080963 4082.5055824518204 688.17308437824249 1365.2466839551926
leaf_count=420 323 29 367 192 41 72 2022 451 863
internal_value=0 -0.000327844 -0.000446465 0.00176535 0.00265114 0.00452937 -0.000934951 -0.000231115 -0.00252695
internal_weight=0 8507.9 8399.27 1519.43 1052.1 728.255 6879.84 4770.68 2109.16
internal_count=4780 4416 4387 631 364 264 3756 2473 1283
is_linear=0
shrinkage=0.06


Tree=38
num_leaves=10
num_cat=0
split_feature=141 8 31 135 56 86 149 35 81
split_gain=2.11742 2.71726 2.26937 2.38619 2.27553 2.79586 2.21687 3.22454 2.20734
threshold=0.010829726699739696 0.0015833032084628942 0.0012357163941487672 0.0013986918493174019 0.0026012937305495147 0.0031340263085439806 0.0021592099219560628 0.016164712607860569 0.0021592099219560628
decision_type=2 2 2 2 2 2 2 2 2
left_child=2 -2 4 -4 5 -1 7 8 -3
right_child=1 6 3 -5 -6 -7 -8 -9 -10
leaf_value=-0.0012862757803381343 -0.0052382262601112801 -0.006078054000871384 0.0022531925244946151 -0.0015161712782195643 -0.010193018825441377 0.0049397499076195362 -0.00089967668783559075 -0.0072585920350064625 0.0060995524296231758
leaf_weight=4877.8045097589493 166.68342673778534 57.087652564048767 1826.8150192499161 903.68848586082458 97.809444904327393 274.25418961048126 403.13237869739532 79.202033758163452 873.52312576770782
leaf_count=2722 118 39 712 478 64 92 217 53 285
internal_value=0 0.00200706 -0.000397276 0.00100568 -0.00112697 -0.000954852 0.00286178 0.00436341 0.00535253
internal_weight=0 1579.63 7980.37 2730.5 5249.87 5152.06 1412.95 1009.81 930.611
internal_count=4780 712 4068 1190 2878 2814 594 377 324
is_linear=0
shrinkage=0.06


Tree=39
num_leaves=10
num_cat=0
split_feature=36 78 57 34 53 111 18 21 71
split_gain=2.24705 1.84668 2.21234 1.92134 2.88912 2.49107 2.71947 2.34364 2.2183
threshold=0.047455845400691039 0.12087306752800943 0.039062514901161201 0.00055427959887310873 0.0033348383149132137 0.0023699469165876512 0.0031340263085439806 0.00077738583786413084 0.02129978779703379
decision_type=2 2 2 2 2 2 2 2 2
left_child=1 2 3 -1 7 6 -6 -5 -8
right_child=-2 -3 -4 4 5 -7 8 -9 -10
leaf_value=-0.0032411011817442491 0.0062370170829110193 0.0042495571640697657 0.011651562609635515 7.2690538791052176e-05 -8.2315630633760802e-05 0.012384158770792381 0.0045944786184815827 -0.0031897286540323562 -0.0029745037585456489
leaf_weight=768.06196260452271 203.52437329292297 333.3905348777771 55.436517000198364 1623.2669645547867 3928.163378238678 65.860998034477234 866.89490211009979 1549.2957841157913 166.10485208034515
leaf_count=480 61 118 13 769 2067 17 299 868 88
internal_value=0 -0.000135669 -0.000297697 -0.000371566 -0.000102774 0.000791947 0.000638056 -0.00152049 0.0033774
internal_weight=0 9356.48 9023.09 8967.65 8199.59 5027.02 4961.16 3172.56 1033
internal_count=4780 4719 4601 4588 4108 2471 2454 1637 387
is_linear=0
shrinkage=0.06


Tree=40
num_leaves=10
num_cat=0
split_feature=126 135 92 37 5 80 81 12 124
split_gain=2.13217 2.29972 2.54558 2.10436 2.28333 1.98757 2.78525 2.13112 2.02769
threshold=0.0056525857653468856 0.0013986918493174019 0.0049928687512874612 0.0016331639490090313 0.0044099434744566688 0.0014427106943912806 0.0018488886416889729 0.032603342086076743 0.02129978779703379
decision_type=2 2 2 2 2 2 2 2 2
left_child=1 5 3 -3 -5 6 -1 -8 -7
right_child=-2 2 -4 4 -6 8 7 -9 -10
leaf_value=-0.0032420694350279648 -0.0052831625275856471 -0.0015767010855342943 -0.0046258042473517318 0.0038002368819364755 -0.010905538978820583 0.0020975751854952814 4.6725218321126156e-05 0.0057762668454775434 -0.0028897816400654513
leaf_weight=883.11697041988373 267.31299722194672 1346.2653970718384 648.23456561565399 535.34836101531982 40.914650559425354 3387.8243849277496 1862.4396129846573 267.24024951457977 321.30307757854462
leaf_count=544 209 773 407 217 35 1472 890 86 147
internal_value=0 0.000151975 -0.0013743 -0.000277969 0.00275613 0.000735692 -0.000409073 0.00076569 0.00166555
internal_weight=0 9292.69 2570.76 1922.53 576.263 6721.92 3012.8 2129.68 3709.13
internal_count=4780 4571 1432 1025 252 3139 1520 976 1619
is_linear=0
shrinkage=0.06


Tree=41
num_leaves=10
num_cat=0
split_feature=129 8 57 143 5 133 80 25 24
split_gain=1.923 2.04894 2.66018 2.46833 2.06221 2.14872 2.02019 2.55167 2.57492
threshold=0.02636832278221846 0.0048403022810816774 0.0017376682371832433 0.055838862434029586 0.0084566329605877417 0.0025217677466571335 0.011880517937242987 0.030689206905663017 0.001792412775103003
decision_type=2 2 2 2 2 2 2 2 2
left_child=1 2 4 6 5 -1 7 -3 -9
right_child=-2 3 -4 -5 -6 -7 -8 8 -10
leaf_value=0.00031572358258306156 0.0024198801020806891 -0.00055100016917226295 0.0064823823474873437 0.0094950777252558443 -0.0056595538286178465 -0.0023603114197206852 0.0045680983584925217 0.010679455561795347 -0.00068852153978568391
leaf_weight=2199.3980249166489 1052.1011515855789 2862.4792664051056 160.75388824939728 113.21101403236389 371.06382131576538 2122.7149887084961 390.09247100353241 153.64351904392242 134.54212164878845
leaf_count=1193 364 1416 49 28 283 1211 137 38 61
internal_value=0 -0.000299246 -0.00110711 0.000773924 -0.00136707 -0.000998555 0.000495077 -9.21475e-06 0.00537221
internal_weight=0 8507.9 4853.93 3653.97 4693.18 4322.11 3540.76 3150.66 288.186
internal_count=4780 4416 2736 1680 2687 2404 1652 1515 99
is_linear=0
shrinkage=0.06


Tree=42
num_leaves=10
num_cat=0
split_feature=126 112 8 96 124 111 59 109 1
split_gain=1.87154 1.90432 1.70105 2.34596 1.68219 2.4828 1.6544 1.62312 1.73334
threshold=0.0045489775948226461 0.0014881226234138014 0.0066005610860884198 0.0042751494329422721 0.036783467978239066 0.0031340263085439806 0.0016846025246195497 0.00066645268816500913 0.0037758676335215573
decision_type=2 2 2 2 2 2 2 2 2
left_child=1 4 -3 -4 5 -1 -7 -6 -9
right_child=-2 2 3 -5 7 6 -8 8 -10
leaf_value=0.00059232326512224107 -0.0042846725581719295 -0.0031328125887843355 0.0043977025311418274 -0.0036788168999109224 0.0036380079260506745 -0.00064306303774831286 0.010320626291788586 -0.0029799981057846178 -0.014555344050703736
leaf_weight=6876.1345484256744 353.43254196643829 1048.7278362512589 310.58930921554565 222.02351462841034 112.3313113451004 71.89880633354187 159.39204001426697 351.7932471036911 53.677111625671387
leaf_count=3266 263 666 128 126 42 32 38 178 41
internal_value=0 0.000164485 -0.00173041 0.00103095 0.000557454 0.000797994 0.00691247 -0.00274424 -0.00451237
internal_weight=0 9206.57 1581.34 532.613 7625.23 7107.43 231.291 517.802 405.47
internal_count=4780 4517 920 254 3597 3336 70 261 219
is_linear=0
shrinkage=0.06


Tree=43
num_leaves=10
num_cat=0
split_feature=135 36 34 31 51 141 63 45 76
split_gain=2.08773 1.9868 2.42117 3.06105 1.9742 1.80956 2.66425 2.74977 3.00686
threshold=0.0013986918493174019 0.047455845400691039 0.00055427959887310873 0.00093549740267917525 0.027182282879948619 0.010829726699739696 0.00052132029668428015 0.0051502294372767219 0.0019071503775194289
decision_type=2 2 2 2 2 2 2 2 2
left_child=1 2 -1 5 -5 6 7 -4 -9
right_child=-2 -3 3 4 -6 -7 -8 8 -10
leaf_value=-0.0028322705467264688 -0.0014343093958242993 0.0065131146828288642 -0.0014874022142734114 0.0027552189017840878 -0.0091546703659641984 0.0026539205286340208 -0.0020351993122420271 0.0072409298333016726 -0.006903183752553982
leaf_weight=752.57580506801605 2643.2403552532196 195.3414431810379 438.10565006732941 2256.1710052490234 51.242702484130859 620.29891574382782 2161.1106417179108 378.78828728199005 63.125460863113403
leaf_count=452 1494 54 242 858 34 270 1175 147 54
internal_value=0 0.000548121 0.000374764 0.000779119 0.00249073 -0.000299526 -0.00090194 0.00188106 0.0052205
internal_weight=0 6916.76 6721.42 5968.84 2307.41 3661.43 3041.13 880.019 441.914
internal_count=4780 3286 3232 2780 892 1888 1618 443 201
is_linear=0
shrinkage=0.06


Tree=44
num_leaves=10
num_cat=0
split_feature=57 26 111 4 105 133 18 124 99
split_gain=1.77286 2.09385 1.75622 1.74065 1.63572 3.75959 1.76586 3.75905 1.97836
threshold=0.039062514901161201 0.0031340263085439806 0.014520356431603433 0.00046126570669002836 0.00042089859198313212 0.0025217677466571335 0.0037758676335215573 0.0033348383149132137 0.0056525857653468856
decision_type=2 2 2 2 2 2 2 2 2
left_child=1 2 4 -3 5 -1 8 -8 -6
right_child=-2 3 -4 -5 6 -7 7 -9 -10
leaf_value=-0.00050733662040795412 0.010698610203085483 0.0019490843551738391 0.0091628292173922179 -0.008084431893903777 -0.00077975295880051423 -0.0085620225994698148 0.004386392721877126 -0.0017107235435727386 0.0016542435302935247
leaf_weight=1472.3234605789185 55.436517000198364 89.337227463722229 76.285479068756104 205.26009726524353 4146.4989053010941 243.0534942150116 1009.4270956516266 569.34550058841705 1693.0324897766113
leaf_count=871 13 42 21 151 2121 203 357 251 750
internal_value=0 -6.24009e-05 9.68724e-05 -0.00504175 2.11526e-05 -0.00164861 0.000407262 0.00218762 -7.40739e-05
internal_weight=0 9504.56 9209.97 294.597 9133.68 1715.38 7418.3 1578.77 5839.53
internal_count=4780 4767 4574 193 4553 1074 3479 608 2871
is_linear=0
shrinkage=0.06


Tree=45
num_leaves=10
num_cat=0
split_feature=135 15 1 73 39 118 108 146 145
split_gain=1.81992 2.19546 2.02145 2.33082 2.00826 2.28416 1.96904 2.64184 2.03555
threshold=0.0013986918493174019 0.0068083447404205808 0.00244467705488205 0.00042089859198313212 0.016668972559273246 0.0066005610860884198 0.011169348377734424 0.0072436286136507997 0.0035485138650983576
decision_type=2 2 2 2 2 2 2 2 2
left_child=2 4 3 -1 5 -2 7 -3 -8
right_child=1 6 -4 -5 -6 -7 8 -9 -10
leaf_value=-0.0025990856767274776 -0.0016222985435661147 -0.0010477652591135331 0.0018555823488708763 0.0005535699276914605 -0.010090469368848937 -0.01312038380410939 0.00018945053381363476 0.0048828416145592418 -0.0085308258527154041
leaf_weight=1143.3195984363556 934.66080093383789 638.20764172077179 2546.2852281332016 3227.1550850868225 138.72409546375275 66.632430911064148 229.91715741157532 469.1980756521225 165.90015316009521
leaf_count=742 534 364 1057 1487 99 57 118 185 137
internal_value=0 -0.00133916 0.000511759 -0.000271167 -0.0033248 -0.00238745 0.000166722 0.00146498 -0.00346551
internal_weight=0 2643.24 6916.76 4370.47 1140.02 1001.29 1503.22 1107.41 395.817
internal_count=4780 1494 3286 2229 690 591 804 549 255
is_linear=0
shrinkage=0.06


Tree=46
num_leaves=10
num_cat=0
split_feature=135 31 76 75 31 132 115 130 91
split_gain=1.60808 2.54224 2.15342 1.80307 1.82804 1.75198 2.14589 1.77245 2.09107
threshold=0.0013986918493174019 0.0014427106943912806 0.0013146653072908523 0.054214311763644225 0.00039601318712811922 0.007706565549597145 0.015675474889576439 0.0011261500185355546 0.0014427106943912806
decision_type=2 2 2 2 2 2 2 2 2
left_child=1 2 3 -1 -5 6 7 8 -2
right_child=5 -3 -4 4 -6 -7 -8 -9 -10
leaf_value=0.00023908927064408974 -0.0048311680481604351 0.0021940678820728944 -0.0049939397208010805 -0.014772750930920384 0.0015458837424307879 -0.0090865944696076149 0.0042420924996277526 0.0038542808216110234 -0.00075595899009536826
leaf_weight=4339.4059393405914 665.56471693515778 2149.5882148742676 326.54577159881592 58.353071689605713 42.86691415309906 99.074864029884338 257.20148491859436 200.21026146411896 1421.1890279054642
leaf_count=2168 471 816 240 45 17 70 102 68 783
internal_value=0 0.000481053 -0.00029137 5.44377e-05 -0.00786177 -0.00125881 -0.000953977 -0.00153835 -0.00205574
internal_weight=0 6916.76 4767.17 4440.63 101.22 2643.24 2544.17 2286.96 2086.75
internal_count=4780 3286 2470 2230 62 1494 1424 1322 1254
is_linear=0
shrinkage=0.06


Tree=47
num_leaves=10
num_cat=0
split_feature=128 18 148 19 24 15 32 24 71
split_gain=1.47798 2.84791 2.01188 1.72435 2.0677 1.96589 2.16612 1.98818 1.48974
threshold=0.00039601318712811922 0.0066005610860884198 0.0045489775948226461 0.017188700847327713 0.0054799309000372895 0.060991313308477409 0.0013986918493174019 0.00060774214216507982 0.0027679565828293566
decision_type=2 2 2 2 2 2 2 2 2
left_child=1 3 8 5 -5 -1 7 -7 -3
right_child=-2 2 -4 4 -6 6 -8 -9 -10
leaf_value=-0.0035329831452216441 0.00046513021146950555 0.0077987097253378428 0.0064642434580227436 0.0037934625248251261 -0.0051506144698290667 0.0054926720803325346 0.015516139280269264 -0.0070736285961046632 -0.0077339081186652585
leaf_weight=1619.0139465332031 6884.0400319099426 31.273443102836609 265.97483038902283 332.70369040966034 129.17931711673737 99.858137607574463 38.09452497959137 82.99829113483429 76.864053726196289
leaf_count=1085 3199 12 80 142 81 51 8 71 51
internal_value=0 -0.00119657 0.00365868 -0.00198568 0.00129199 -0.00280847 0.00250041 -0.000211155 -0.00324186
internal_weight=0 2675.96 374.112 2301.85 461.883 1839.96 220.951 182.856 108.137
internal_count=4780 1581 143 1438 223 1215 130 122 63
is_linear=0
shrinkage=0.06


Tree=48
num_leaves=10
num_cat=0
split_feature=36 57 64 18 60 7 45 54 125
split_gain=1.5569 1.5512 1.80336 1.92258 1.93696 1.77026 2.49521 2.48613 2.83536
threshold=0.047455845400691039 0.039062514901161201 0.0026012937305495147 0.13848232477903369 0.0033348383149132137 0.00040826165059115743 0.017188700847327713 0.024810968898236755 0.027182282879948619
decision_type=2 2 2 2 2 2 2 2 2
left_child=1 2 3 4 -1 -6 7 8 -7
right_child=-2 -3 -4 -5 5 6 -8 -9 -10
leaf_value=-0.00074557593292598251 0.0051915881181387362 0.0098939070387809979 -0.0093958325233620514 0.00573745862572414 -0.0026706747363378558 0.0023595157593280171 -0.010271444421066443 0.01269813696386757 -0.0095049319602977765
leaf_weight=6685.494450211525 203.52437329292297 55.436517000198364 75.695063710212708 198.94484233856201 350.70884549617767 1776.5484485626221 58.353071689605713 79.696020007133484 75.598634600639343
leaf_count=3575 61 13 50 62 241 669 45 19 45
internal_value=0 -0.000112929 -0.000172572 -9.6894e-05 -0.000225485 0.00125987 0.0019525 0.00232173 0.00187525
internal_weight=0 9356.48 9301.04 9225.34 9026.4 2340.91 1990.2 1931.84 1852.15
internal_count=4780 4719 4706 4656 4594 1019 778 733 714
is_linear=0
shrinkage=0.06


Tree=49
num_leaves=10
num_cat=0
split_feature=112 15 43 60 66 46 81 61 145
split_gain=1.39107 1.64728 1.5274 1.61134 2.11515 1.58559 2.81612 1.93898 1.78758
threshold=0.0033348383149132137 0.099488973617553725 0.0012745757703669371 0.0017376682371832433 0.00082683752407319855 0.0020292587578296666 0.0079489401541650313 0.0054799309000372895 0.00093549740267917525
decision_type=2 2 2 2 2 2 2 2 2
left_child=2 -2 3 4 -1 6 7 -5 -7
right_child=1 -3 -4 5 -6 8 -8 -9 -10
leaf_value=0.00049258848206230616 -0.0028537335117918652 0.0087594659080425658 -0.00096556295745256373 -0.0095584581130788767 -0.0042465893876386784 0.0050502128352240593 0.0047640358443924447 0.0033312273701263805 0.0011924294714942877
leaf_weight=3502.3617250919342 848.62584459781647 46.373884201049805 2656.099245429039 152.65554654598236 375.36590564250946 749.69477248191833 149.16041719913483 57.967355251312256 1021.6955704689026
leaf_count=1688 544 20 1505 106 208 243 44 25 397
internal_value=0 -0.002252 0.000232607 0.000762231 3.38338e-05 0.00208757 -0.00154383 -0.00601098 0.00282514
internal_weight=0 895 8665 6008.9 3877.73 2131.17 359.783 210.623 1771.39
internal_count=4780 564 4216 2711 1896 815 175 131 640
is_linear=0
shrinkage=0.06


Tree=50
num_leaves=10
num_cat=0
split_feature=126 18 130 101 127 133 69 68 133
split_gain=1.38646 1.5211 1.36194 2.08033 2.03733 3.40974 2.50442 2.41615 2.13339
threshold=0.0056525857653468856 0.0031340263085439806 0.00090704852482303988 0.018276390619575981 0.00039601318712811922 0.0054799309000372895 0.0005375427135732026 0.0017376682371832433 0.0025217677466571335
decision_type=2 2 2 2 2 2 2 2 2
left_child=2 -2 4 -4 8 6 -6 -8 -1
right_child=1 -3 3 -5 5 -7 7 -9 -10
leaf_value=0.0021928140064038063 -0.0058726516972659815 0.0084446120294966801 0.0013569236873097049 0.010757366385767197 -0.0054788679986621678 0.00057625296941796026 -0.0086009252901511901 0.00042693612443076278 -0.00035326455553718716
leaf_weight=2007.0204992294312 237.20854413509369 30.104453086853027 730.68980419635773 95.869022011756897 836.34552907943726 1865.8501539230347 124.69621527194977 740.41560006141663 2891.8004459142685
leaf_count=935 198 11 271 23 563 888 87 358 1446
internal_value=0 -0.00426026 0.00012255 0.00244724 -0.000104412 -0.00119514 -0.00313767 -0.000874329 0.00068985
internal_weight=0 267.313 9292.69 826.559 8466.13 3567.31 1701.46 865.112 4898.82
internal_count=4780 209 4571 294 4277 1896 1008 445 2381
is_linear=0
shrinkage=0.06


Tree=51
num_leaves=10
num_cat=0
split_feature=141 101 8 127 137 47 43 67 9
split_gain=1.46639 1.94124 1.96843 1.85746 1.91948 2.23324 1.75997 1.74122 2.74371
threshold=0.010829726699739696 0.0087224207818508166 0.0018488886416889729 0.00039601318712811922 0.0026833302108570938 0.00017767510871635753 0.00064626874518580746 0.0054799309000372895 0.00080172589514404546
decision_type=2 2 2 2 2 2 2 2 2
left_child=3 2 -2 -1 5 -5 -3 8 -4
right_child=1 6 7 4 -6 -7 -8 -9 -10
leaf_value=0.00032719404105455179 -0.005235267763125679 0.010126795636792481 0.0043671015676284208 -0.015809335959750221 0.0034677318227515365 -0.0018685044212566608 0.00022651370784964274 -0.0072485487252767905 -0.0021494944597238424
leaf_weight=5262.68980884552 173.79379594326019 166.40598011016846 714.42037308216095 42.083640575408936 244.43902385234833 2431.1591761112213 105.70308768749237 74.429644584655762 344.87573611736298
leaf_count=2589 129 44 262 36 96 1347 56 44 177
internal_value=0 0.00167025 0.000710715 -0.000330608 -0.00160442 -0.00210572 0.00628095 0.0016222 0.00224549
internal_weight=0 1579.63 1307.52 7980.37 2717.68 2473.24 272.109 1133.73 1059.3
internal_count=4780 712 612 4068 1479 1383 100 483 439
is_linear=0
shrinkage=0.06


Tree=52
num_leaves=10
num_cat=0
split_feature=131 19 25 71 39 141 79 70 107
split_gain=1.29983 2.78379 1.42024 1.43545 1.83405 2.11962 1.61407 1.3895 1.38475
threshold=0.040252277627587325 0.00096484774257987748 0.030689206905663017 0.012636432424187662 0.00017767510871635753 0.022641776129603389 0.00082683752407319855 0.0041444667149335155 0.0021592099219560628
decision_type=2 2 2 2 2 2 2 2 2
left_child=2 -2 -1 4 -4 -6 -5 8 -3
right_child=1 7 3 6 5 -7 -8 -9 -10
leaf_value=-0.00042908886043581504 -0.0095549023721978182 0.0074402913287670847 -0.0040667641626435935 0.003257238604009725 0.0028791445574707876 0.012842192122793592 -0.01529752414246089 -0.0015461790642268523 0.00074414782138386394
leaf_weight=8101.6454830169678 62.932602643966675 328.13600015640259 108.1374968290329 33.611423134803772 489.56489217281342 91.193061947822571 33.900710463523865 142.72505176067352 168.15354478359222
leaf_count=4216 44 84 63 14 168 19 29 68 75
internal_value=0 0.00248532 -0.000196947 0.00228945 0.0031077 0.00444358 -0.0060599 0.00367109 0.00517149
internal_weight=0 701.947 8858.05 756.408 688.895 580.758 67.5121 639.015 496.29
internal_count=4780 271 4509 293 250 187 43 227 159
is_linear=0
shrinkage=0.06


Tree=53
num_leaves=10
num_cat=0
split_feature=141 34 91 103 4 70 98 32 128
split_gain=1.2496 2.18868 1.60556 1.61572 2.44214 1.86074 1.58623 2.80391 1.5856
threshold=0.010829726699739696 0.00077738583786413084 0.0066005610860884198 0.00017767510871635753 0.00017767510871635753 0.0030382014811038975 0.0026833302108570938 0.0017376682371832433 0.05109804309904576
decision_type=2 2 2 2 2 2 2 2 2
left_child=8 -2 3 4 -3 -5 -6 -8 -1
right_child=1 2 -4 5 6 -7 7 -9 -10
leaf_value=-0.0004452031663223981 -0.005175527420329706 -0.0033832251706511843 -0.0017803639817355805 -0.0077267141898501772 0.0072541903313185791 0.0049741688268811193 0.0069475077052638164 -0.0051603462083013403 0.0048035399151307142
leaf_weight=7767.495355963707 157.23507750034332 131.42086803913116 280.77414345741272 94.398903965950012 560.8851238489151 74.140357255935669 159.77775645256042 120.99638700485229 212.87629342079163
leaf_count=3999 105 78 132 66 170 29 58 74 69
internal_value=0 0.00154185 0.00228441 0.00328411 0.00422351 -0.0021396 0.00541127 0.00172977 -0.000305193
internal_weight=0 1579.63 1422.39 1141.62 973.08 168.539 841.659 280.774 7980.37
internal_count=4780 712 607 475 380 95 302 132 4068
is_linear=0
shrinkage=0.06


Tree=54
num_leaves=10
num_cat=0
split_feature=26 18 57 74 74 87 51 79 65
split_gain=1.28264 1.36892 1.64782 1.71778 2.011 2.24463 1.63402 2.35466 2.32875
threshold=0.0031340263085439806 0.13848232477903369 0.0017376682371832433 0.00064626874518580746 0.0020932231564074759 0.0072436286136507997 0.0030382014811038975 0.00096484774257987748 0.00087947337306104611
decision_type=2 2 2 2 2 2 2 2 2
left_child=1 2 3 -1 5 6 7 -5 -8
right_child=-2 -3 -4 4 -6 -7 8 -9 -10
leaf_value=-0.00062957651162618973 -0.0038511528334920948 0.0050194181306189916 0.0036497239330935947 -0.0055269558366031948 -0.00078863793780503579 -0.0084280048848463362 0.0040130040059865139 0.0066841225711018349 -0.0054099339938789934
leaf_weight=6622.6582766771317 301.51483571529388 201.28282237052917 428.18699598312378 62.836173534393311 873.59587347507477 58.256642580032349 269.77108776569366 596.64166879653931 145.25589001178741
leaf_count=3536 194 64 145 39 408 40 98 176 80
internal_value=0 0.000125418 1.6656e-05 -0.000163623 0.00137441 0.00304258 0.00366448 0.00552063 0.000715056
internal_weight=0 9258.49 9057.2 8629.02 2006.36 1132.76 1074.5 659.478 415.027
internal_count=4780 4586 4522 4377 841 433 393 215 178
is_linear=0
shrinkage=0.06


Tree=55
num_leaves=10
num_cat=0
split_feature=109 53 78 34 26 99 5 61 60
split_gain=1.23801 1.30191 2.11948 2.11708 1.5852 1.46565 2.36087 1.65851 1.96205
threshold=0.054214311763644225 0.0037758676335215573 0.12087306752800943 0.0025217677466571335 0.0026833302108570938 0.004017772153019906 0.0016846025246195497 0.010500331409275534 0.025578102096915249
decision_type=2 2 2 2 2 2 2 2 2
left_child=1 2 -1 -4 5 6 7 8 -3
right_child=-2 4 3 -5 -6 -7 -8 -9 -10
leaf_value=-0.00099293605305871761 -0.0051455423104743072 0.0012074464179828608 -0.0030976071822624985 0.0079286337595286457 -0.0052338727030117622 0.0023960453062780054 -0.0028711770277213052 -0.0035182274540737782 0.00956773020565207
leaf_weight=4181.2793184518814 165.41800761222839 2051.7314071655273 92.844197511672974 193.00346314907074 153.72810745239258 1660.1079111099243 702.88780903816223 252.70654237270355 106.29350304603577
leaf_count=2136 112 988 45 52 102 712 439 167 27
internal_value=0 9.06017e-05 -0.00065122 0.00434728 0.000763122 0.000956243 0.000188574 0.00108069 0.00161923
internal_weight=0 9394.58 4467.13 285.848 4927.46 4773.73 3113.62 2410.73 2158.02
internal_count=4780 4668 2233 97 2435 2333 1621 1182 1015
is_linear=0
shrinkage=0.06


Tree=56
num_leaves=10
num_cat=0
split_feature=124 88 150 142 4 130 62 72 93
split_gain=1.13074 1.82231 2.99705 2.27396 1.7087 1.3083 1.42811 1.78451 1.3387
threshold=0.036783467978239066 0.018276390619575981 0.00055427959887310873 0.00899649551138282 0.00046126570669002836 0.00090704852482303988 0.0026833302108570938 0.024066280573606495 0.088838413357734694
decision_type=2 2 2 2 2 2 2 2 2
left_child=5 3 4 -2 -3 6 8 -8 -1
right_child=1 2 -4 -5 -6 -7 7 -9 -10
leaf_value=0.00028538368880268893 -0.011545387911642996 0.007891265071046186 -0.0082127832489974628 -0.00010014561928270457 -0.003399451734264708 0.0024978317905001439 -0.0040383008165061768 0.0077349954364033966 -0.004709239164111088
leaf_weight=7433.754626750946 138.91695368289948 151.40196812152863 100.05099582672119 113.59673047065735 70.826245427131653 789.44043302536011 512.71631217002869 50.953415155410767 198.34258627891541
leaf_count=3684 109 41 61 48 36 277 355 19 150
internal_value=0 -0.00257996 0.000410469 -0.00639659 0.00429281 0.000165042 -5.96587e-05 -0.00297404 0.000155584
internal_weight=0 574.793 322.279 252.514 222.228 8985.21 8195.77 563.67 7632.1
internal_count=4780 295 138 157 77 4485 4208 374 3834
is_linear=0
shrinkage=0.06


Tree=57
num_leaves=10
num_cat=0
split_feature=57 135 15 31 126 99 145 81 118
split_gain=1.18894 1.15629 2.03145 1.92104 2.2006 2.46243 2.10579 1.91479 1.80511
threshold=0.039062514901161201 0.0013986918493174019 0.0068083447404205808 0.00082683752407319855 0.00043393640953581786 0.0030382014811038975 0.004017772153019906 0.011880517937242987 0.0066005610860884198
decision_type=2 2 2 2 2 2 2 2 2
left_child=1 3 8 -1 5 -5 -6 -7 -3
right_child=-2 2 -4 4 6 7 -8 -9 -10
leaf_value=-0.00041867797334727176 0.0087613335880523963 -0.0024083513016648697 0.00032706122521862258 -0.0023830197417022705 0.0056991940665904175 0.003806934971677201 0.00038898485009869585 -0.0050546095860272101 -0.012054432741863399
leaf_weight=4307.8195275068283 55.436517000198364 1050.1979542970657 1491.6295568943024 720.73562800884247 691.43812990188599 625.96284830570221 439.86505544185638 102.09968852996826 74.815361022949219
leaf_count=2259 13 623 799 351 203 206 214 48 64
internal_value=0 -5.11015e-05 -0.00112482 0.000356791 0.00165154 0.000103119 0.00363452 0.00256424 -0.00304983
internal_weight=0 9504.56 2616.64 6887.92 2580.1 1448.8 1131.3 728.063 1125.01
internal_count=4780 4767 1486 3281 1022 605 417 254 687
is_linear=0
shrinkage=0.06


Tree=58
num_leaves=10
num_cat=0
split_feature=111 25 31 27 115 108 83 148 115
split_gain=1.02383 1.67074 1.48457 1.30452 1.75342 3.19617 1.65682 2.34785 1.82079
threshold=0.0031340263085439806 0.011519505176693203 0.0068083447404205808 0.0036604277556762104 0.013032016810029747 0.00017767510871635753 0.011519505176693203 0.014740333426743748 0.0063990866765379914
decision_type=2 2 2 2 2 2 2 2 2
left_child=3 2 -2 4 5 -1 -7 8 -8
right_child=1 -3 -4 -5 -6 6 7 -9 -10
leaf_value=-0.0077761116066880588 -0.0076282072488445636 0.0077739132193302878 0.0062796616812804736 -0.0011184393166665779 0.0023320445336529744 -0.0011410207367886678 0.00059520633495231646 0.0040145184185541851 -0.0061121734138584885
leaf_weight=189.18352437019348 66.343143582344055 152.47452902793884 47.350015997886658 3065.0275079011917 1323.029388666153 1986.1360150575638 1829.2866539955139 742.86184990406036 158.30763840675354
leaf_count=152 42 37 11 1486 522 1104 1019 306 101
internal_value=0 0.00366907 -0.00183597 -0.000105079 0.000393568 -0.000129216 0.000177503 0.0011366 6.09779e-05
internal_weight=0 266.168 113.693 9293.83 6228.81 4905.78 4716.59 2730.46 1987.59
internal_count=4780 90 53 4690 3204 2682 2530 1426 1120
is_linear=0
shrinkage=0.06


Tree=59
num_leaves=10
num_cat=0
split_feature=18 141 9 146 80 130 31 127 15
split_gain=1.15763 1.29512 1.93763 2.81474 2.14391 1.53177 1.42811 1.40528 2.10502
threshold=0.13848232477903369 0.010829726699739696 0.00087947337306104611 0.0079489401541650313 0.0062037324532866487 0.0015833032084628942 0.079227816313505187 0.00039601318712811922 0.00017767510871635753
decision_type=2 2 2 2 2 2 2 2 2
left_child=1 7 3 6 5 -4 -3 -1 -9
right_child=-2 2 4 -5 -6 -7 -8 8 -10
leaf_value=0.00016995481851739624 0.0044755946563249062 -0.00096462384162175824 -0.0068748010523380382 0.0060280983750152194 0.0032051676356515831 0.0070386473365679023 0.0091517999975743759 -0.013547242553189152 -0.001291117021894441
leaf_weight=5107.6844415664673 203.62080240249634 535.43294942378998 238.67866218090057 522.98345708847046 181.98856675624847 32.346004009246826 55.436517000198364 51.435560703277588 2630.3933057785034
leaf_count=2540 66 281 155 172 77 8 13 44 1424
internal_value=0 -9.74014e-05 0.00147655 0.00282214 -0.00183194 -0.00521427 -1.54814e-05 -0.000414003 -0.00152618
internal_weight=0 9356.38 1566.87 1113.85 453.013 271.025 590.869 7789.51 2681.83
internal_count=4780 4714 706 466 240 163 294 4008 1468
is_linear=0
shrinkage=0.06


Tree=60
num_leaves=10
num_cat=0
split_feature=36 64 68 57 14 76 147 99 34
split_gain=1.15447 1.47141 1.34509 1.07139 1.39783 2.6262 1.72627 2.17804 1.65168
threshold=0.047455845400691039 0.0026012937305495147 0.00064626874518580746 0.039062514901161201 0.002945306478068233 0.0016331639490090313 0.068554218858480467 0.0019672545604407792 0.00017767510871635753
decision_type=2 2 2 2 2 2 2 2 2
left_child=1 3 -3 4 8 6 7 -6 -1
right_child=-2 2 -4 -5 5 -7 -8 -9 -10
leaf_value=-0.003875806590049624 0.0044705589315299481 0.0005209405553058509 -0.015576620387862138 0.0082869328163344864 -0.003862778114803055 -0.011655939469429295 0.0036873462254132508 9.2754676067544693e-05 0.00056749986505735166
leaf_weight=315.83200323581696 203.52437329292297 33.611423134803772 42.083640575408936 55.436517000198364 844.25101256370544 85.336271166801453 258.17761671543121 1233.0899051427841 6488.6575040817261
leaf_count=221 61 14 36 13 496 73 93 568 3205
internal_value=0 -9.72447e-05 -0.0084287 -2.92924e-05 -7.92659e-05 -0.00131749 -0.000939744 -0.00151481 0.000361263
internal_weight=0 9356.48 75.6951 9280.78 9225.34 2420.85 2335.52 2077.34 6804.49
internal_count=4780 4719 50 4669 4656 1230 1157 1064 3426
is_linear=0
shrinkage=0.06


Tree=61
num_leaves=10
num_cat=0
split_feature=126 128 49 139 24 7 70 10 1
split_gain=1.10341 1.06579 1.32452 1.30073 1.86678 2.29222 2.40236 1.92383 1.85907
threshold=0.0056525857653468856 0.00039601318712811922 0.0063990866765379914 0.0005375427135732026 0.00087947337306104611 0.0020292587578296666 0.00017767510871635753 0.0026833302108570938 0.0063990866765379914
decision_type=2 2 2 2 2 2 2 2 2
left_child=1 3 -3 4 5 6 7 8 -1
right_child=-2 2 -4 -5 -6 -7 -8 -9 -10
leaf_value=-0.0071126186417197106 -0.0038005891239217826 0.00066852277150952506 -0.0038772577760755518 0.0027925299154539086 -0.0024801917872106778 0.0095051139312383581 -0.0064737198297315475 0.0061600623632962872 0.0069353768904531462
leaf_weight=106.37809145450592 267.31299722194672 6482.5706294775009 239.26907753944397 298.70655083656311 1645.6232702732086 103.9555230140686 156.4518039226532 209.94789803028107 49.784425139427185
leaf_count=91 209 2949 126 108 1034 25 124 96 18
internal_value=0 0.000109328 0.000506712 -0.00092969 -0.00141903 0.00136823 -0.00025047 0.00240894 -0.00263413
internal_weight=0 9292.69 6721.84 2570.85 2272.14 626.518 522.562 366.11 156.163
internal_count=4780 4571 3075 1496 1388 354 329 205 109
is_linear=0
shrinkage=0.06


Tree=62
num_leaves=10
num_cat=0
split_feature=131 19 118 28 86 141 34 113 101
split_gain=0.943857 2.29884 1.5557 1.52077 1.4185 1.10462 2.16853 1.93341 2.15232
threshold=0.040252277627587325 0.00096484774257987748 0.00037263428384903824 0.0013986918493174019 0.000490355829242617 0.010829726699739696 0.00077738583786413084 0.0026833302108570938 0.0087224207818508166
decision_type=2 2 2 2 2 2 2 2 2
left_child=5 -2 -3 4 -4 -1 -7 8 -8
right_child=1 2 3 -5 -6 6 7 -9 -10
leaf_value=-0.00047199083857584959 -0.0088235029959277643 0.0057289785969579831 -0.012982386769059832 0.0037876884356339399 0.00020792854549324234 -0.0055312569620587322 0.0021144161285045321 -0.0015136159312752633 0.0092715190584496433
leaf_weight=7344.4783062934875 62.932602643966675 368.85779249668121 50.170141577720642 149.25684630870819 70.729816317558289 150.3175665140152 786.99418318271637 389.00806939601898 187.2549421787262
leaf_count=3824 44 109 38 49 31 104 329 200 52
internal_value=0 0.00211784 0.00319538 -0.000263858 -0.00526569 -0.000167826 0.00130811 0.00206224 0.00349004
internal_weight=0 701.947 639.015 270.157 120.9 8858.05 1513.57 1363.26 974.249
internal_count=4780 271 227 118 69 4509 685 581 381
is_linear=0
shrinkage=0.06


Tree=63
num_leaves=10
num_cat=0
split_feature=26 4 109 35 46 127 80 47 15
split_gain=0.976656 1.82798 1.12662 1.06342 1.38968 1.5317 1.28829 1.41279 2.40931
threshold=0.0031340263085439806 0.00039601318712811922 0.054214311763644225 0.016164712607860569 0.00046126570669002836 0.0053125319536775359 0.0016846025246195497 0.0032328735105693345 0.0019071503775194289
decision_type=2 2 2 2 2 2 2 2 2
left_child=2 -2 3 -1 -5 6 7 8 -6
right_child=1 -3 -4 4 5 -7 -8 -9 -10
leaf_value=0.00039984790928763173 0.0048137764529140661 -0.0060305473032353264 -0.0048699034484022642 0.0025673694798331939 -0.0023789405217336814 -0.013064724942525301 -0.008316991837799461 -0.0061209514291840029 0.0087560690814623959
leaf_weight=8290.4060653448105 74.236786365509033 227.27804934978485 160.74204754829407 192.50947690010071 218.13082814216614 52.604550719261169 105.99237501621246 135.12069630622864 102.97939121723175
leaf_count=4048 34 160 108 86 103 45 71 91 34
internal_value=0 -0.00336054 0.00010944 0.000197417 -0.00188131 -0.00327424 -0.00235819 -0.000973833 0.00119203
internal_weight=0 301.515 9258.49 9097.74 807.337 614.828 562.223 456.231 321.11
internal_count=4780 194 4586 4478 430 344 299 228 137
is_linear=0
shrinkage=0.06


Tree=64
num_leaves=10
num_cat=0
split_feature=18 128 18 24 54 134 51 105 67
split_gain=0.995998 1.20671 1.41296 1.64324 1.58538 1.6209 1.35679 1.33794 1.39599
threshold=0.13848232477903369 0.00039601318712811922 0.0005893622583243997 0.00087947337306104611 0.0017376682371832433 0.0003614811430452392 0.010829726699739696 0.00052132029668428015 0.0005375427135732026
decision_type=2 2 2 2 2 2 2 2 2
left_child=1 2 3 6 5 -5 -1 -4 -9
right_child=-2 -3 7 4 -6 -7 -8 8 -10
leaf_value=-0.00058611878526750754 0.0041513986593669106 0.00032957283594508863 -0.0077854899443298283 -0.0030347867691927445 -0.005632555564457054 0.0046234696782759066 0.0087943478277805725 0.0022004388236122286 -0.00479608082918331
leaf_weight=430.98344016075134 203.62080240249634 6781.0606406927109 63.125460863113403 403.02410888671875 602.04169893264771 132.10771250724792 63.715876221656799 761.66211926937103 118.65840697288513
leaf_count=290 66 3165 54 271 456 54 25 327 72
internal_value=0 -9.0346e-05 -0.00119603 -0.00226464 -0.00352042 -0.0011442 0.000622059 0.000652325 0.00125738
internal_weight=0 9356.38 2575.32 1631.87 1137.17 535.132 494.699 943.446 880.321
internal_count=4780 4714 1549 1096 781 325 315 453 399
is_linear=0
shrinkage=0.06


Tree=65
num_leaves=10
num_cat=0
split_feature=150 81 14 28 137 109 100 20 106
split_gain=1.02995 2.05157 1.82147 2.27736 2.15196 1.93328 2.23484 1.7426 1.82428
threshold=0.0013560238294303419 0.0018488886416889729 0.002945306478068233 0.00085274505545385193 0.0013560238294303419 0.014740333426743748 0.00244467705488205 0.0036604277556762104 0.0013986918493174019
decision_type=2 2 2 2 2 2 2 2 2
left_child=1 -1 4 5 -2 6 -4 8 -6
right_child=2 -3 3 -5 7 -7 -8 -9 -10
leaf_value=-0.0014591670197913065 -0.00059395849865008499 0.0016029565959555033 0.0066488538303229316 -0.0039237060462473956 -0.0067001214650389456 0.0074925555291111626 -0.010778372567920538 0.0076126673267277907 0.0025430594519218071
leaf_weight=1092.7755811214447 3622.8286037445068 2821.117992401123 46.27745509147644 949.85767114162445 89.626514792442322 131.9148542881012 61.956470847129822 203.62080240249634 540.02432107925415
leaf_count=625 1973 1179 15 547 57 44 53 66 221
internal_value=0 0.000747999 -0.000518514 -0.00260392 3.83952e-05 0.00261622 -0.00332703 0.00278769 0.00122736
internal_weight=0 3913.89 5646.11 1190.01 4456.1 240.149 108.234 833.272 629.651
internal_count=4780 1804 2976 659 2317 112 68 344 278
is_linear=0
shrinkage=0.06


Tree=66
num_leaves=10
num_cat=0
split_feature=109 53 9 81 69 118 41 14 68
split_gain=0.96916 1.07163 2.2636 2.39322 2.46435 2.28763 1.82429 2.50426 1.5292
threshold=0.054214311763644225 0.0037758676335215573 0.00096484774257987748 0.0018488886416889729 0.0017376682371832433 0.00057154725072905432 0.0010585968848317864 0.0054799309000372895 0.0045489775948226461
decision_type=2 2 2 2 2 2 2 2 2
left_child=1 2 3 5 8 -1 7 -6 -5
right_child=-2 -3 -4 4 6 -7 -8 -9 -10
leaf_value=-0.00013887799353609056 -0.0045526824106027547 0.00069031531309299711 -0.0030501011251523949 0.0028604463262776529 -0.0020073453711960576 -0.0063935009353010032 0.0055563661930925169 -0.014818524017404031 -0.0020634853425815745
leaf_weight=552.28095519542694 165.41800761222839 4927.4552801847458 1036.4712021350861 1633.4258396625519 484.28667604923248 340.18793535232544 94.79646110534668 61.956470847129822 263.72143876552582
leaf_count=320 112 2435 567 640 252 232 27 53 142
internal_value=0 8.01628e-05 -0.000592865 0.000149517 0.00108922 -0.00252299 -0.00212703 -0.00346043 0.00217597
internal_weight=0 9394.58 4467.13 3430.66 2538.19 892.469 641.04 546.243 1897.15
internal_count=4780 4668 2233 1666 1114 552 332 305 782
is_linear=0
shrinkage=0.06


Tree=67
num_leaves=10
num_cat=0
split_feature=44 57 92 131 5 78 134 138 135
split_gain=0.881629 1.10681 1.01879 2.4541 1.98409 2.06571 1.84537 1.93826 2.8402
threshold=0.086341444402933135 0.039062514901161201 0.002945306478068233 0.0013146653072908523 0.00075379351619631063 0.0068083447404205808 0.00082683752407319855 0.0022975050378590827 0.0013986918493174019
decision_type=2 2 2 2 2 2 2 2 2
left_child=1 2 3 -1 -5 -6 7 8 -4
right_child=-2 -3 6 4 5 -7 -8 -9 -10
leaf_value=-0.00062088775628482565 -0.0041844492494219438 0.0087173636832053401 0.00071649698916705106 0.0031134793187919574 -0.0034336345282965355 0.0030071207236512416 0.0032667708564900382 -0.0034820428621631068 -0.0038918080706089905
leaf_weight=2810.7070555686951 177.89118134975433 53.098536968231201 2175.3669022321701 1691.2967658042908 411.89388346672058 317.41039109230042 386.58550095558167 917.42707872390747 618.32297074794769
leaf_count=1593 103 11 1020 660 254 124 134 475 406
internal_value=0 7.934e-05 3.01744e-05 0.000585108 0.00198546 -0.000630466 -0.000678279 -0.00108923 -0.000303452
internal_weight=0 9382.11 9329.01 5231.31 2420.6 729.304 4097.7 3711.12 2793.69
internal_count=4780 4677 4666 2631 1038 378 2035 1901 1426
is_linear=0
shrinkage=0.06


Tree=68
num_leaves=10
num_cat=0
split_feature=126 18 53 57 9 146 88 49 60
split_gain=0.915306 1.20184 0.98765 1.53705 2.52197 2.00205 2.22232 2.18391 1.58322
threshold=0.0056525857653468856 0.0031340263085439806 0.0037758676335215573 0.039062514901161201 0.00096484774257987748 0.010180860292166473 0.018276390619575981 0.0022975050378590827 0.002945306478068233
decision_type=2 2 2 2 2 2 2 2 2
left_child=2 -2 3 4 5 6 7 -1 -7
right_child=1 -3 -4 -5 -6 8 -8 -9 -10
